tree
version=v4
num_class=1
num_tree_per_iteration=1
label_index=0
max_feature_idx=19
objective=binary sigmoid:1
feature_names=avg_rating rating_std low_rating_ratio avg_review_length duplicate_review_ratio negative_keyword_ratio textless_5star_ratio review_count review_density question_count refund_question_ratio defect_question_ratio authenticity_question_ratio question_density question_review_ratio negative_sentiment_ratio avg_sentiment_score rating_normalized rating_sentiment_gap product_count
feature_infos=[1.8214285714285712:5] [0:1.9318084941243563] [0:0.8214285714285714] [0:761.42105263157896] [0:1.875] [0:0.5] [0:1] [1:82] [1:30] [0:58] [0:0.2857142857142857] [0:0.26666666666666661] [0:1] [0:30] [0:4] [0:0.5] [0.5:1] [0.20535714285714279:1] [0:0.65178571428571441] [1:4]
tree_sizes=1020 1618 1625 1630 1728 1719 1717 1721 1511 1717 1595 1719 1609 1711 1710 1620 1616 1615 1719 1716 1723 1616 1615 1624 1504 1721 1714 1816 1717 1611 1718 1814 1828 1822 1724 1816 1924 1605 1825 1509 1713 1929 2044 1925 1938 1831 1829 2028 2030 1722 1826 1947 1941 1948 1844 1724 1601 1828 1826 1618 1706 1617 2172 1841 2164 1937 1828 2149 1835 2056 1940 2162 1622 1955 1938 1726 1953 1837 1506 1618 1729 2167 1842 2066 1732 2178 2291 2173 2046 1836 2048 2176 2164 1856 1966 1967 1950 1741 2055

Tree=0
num_leaves=9
num_cat=0
split_feature=10 18 11 14 18 7 3 6
split_gain=110.481 38.007 34.001 26.263 16.0396 14.3595 0.162617 0.160396
threshold=1.0000000180025095e-35 0.063403655864635491 0.033381086576174314 0.78921125287118798 0.14758158508158503 20.500000000000004 406.49631796741602 0.37119815668202766
decision_type=2 2 2 2 2 2 2 2
left_child=3 2 -2 4 7 6 -3 -1
right_child=1 5 -4 -5 -6 -7 -8 -9
leaf_value=-0.089999999999999872 -0.081818181818181832 0.089999999999999941 0.080952380952380956 0.024137931034482762 0 0.023529411764705882 0.10000000000000001 -0.10000000000000001
leaf_weight=5.0000000000000062 8.2499999999999982 5.0000000000000027 5.2499999999999991 7.2499999999999991 4.9999999999999991 8.4999999999999982 21.75 20.25
leaf_count=20 33 20 21 29 20 34 87 81
internal_value=0.00318841 0.0528205 -0.0185185 -0.0613333 -0.0818182 0.0801418 0.0981308 -0.0980198
internal_weight=86.25 48.75 13.5 37.5 30.25 35.25 26.75 25.25
internal_count=345 195 54 150 121 141 107 101
is_linear=0
shrinkage=0.05


Tree=1
num_leaves=14
num_cat=0
split_feature=10 18 11 18 8 11 18 10 16 9 3 18 3
split_gain=99.8899 34.3703 30.7386 24.3831 13.1602 10.008 1.09507 0.165508 0.151826 0.00276536 0.00271165 0.00140031 3.18345e-05
threshold=1.0000000180025095e-35 0.063403655864635491 0.033381086576174314 0.13749999999999996 20.879336652620818 0.050625631687506105 0.092994573408038614 0.032687393598507287 0.88640492774963231 15.983141648910662 310.2436101343057 0.045868347338935557 437.07057886636164
decision_type=2 2 2 2 2 2 2 2 2 2 2 2 2
left_child=3 2 -2 5 6 8 -3 -8 -1 12 -10 -12 -9
right_child=1 4 -4 -5 -6 -7 7 9 10 -11 11 -13 -14
leaf_value=-0.086210950624891688 -0.077859709411923647 0.068904083383321463 0.077033036379540454 0.023980307559292542 0.0032465944073164208 -0.025683539685469572 0.085490104102987949 0.095401060707296953 -0.095258720088663443 0.096592133289476079 -0.096038137782756661 -0.097152160416518127 0.095241872246060344
leaf_weight=4.9897570461034837 8.2362087070941907 5.4901668578386333 5.2414083480834952 7.249084696173667 5.2482130676507941 6.98829062283039 4.9885837882757214 4.9883496016263988 6.7332715690135982 5.9903292506933203 6.486250087618826 4.9916380494832993 8.4787854850292188
leaf_count=20 33 22 21 29 21 28 20 20 27 24 26 20 34
internal_value=0.00303425 0.0502722 -0.0176223 -0.0583654 0.0762797 -0.0781383 0.0890833 0.0936152 -0.0939381 0.0956984 -0.0960553 -0.0965226 0.0953008
internal_weight=86.1003 48.662 13.4776 37.4383 35.1844 30.1892 29.9362 24.446 23.2009 19.4575 18.2112 11.4779 13.4671
internal_count=345 195 54 150 141 121 120 98 93 78 73 46 54
is_linear=0
shrinkage=0.05


Tree=2
num_leaves=14
num_cat=0
split_feature=10 18 11 14 18 7 8 16 2 3 5 10 11
split_gain=90.5788 31.1905 27.8772 23.3885 13.108 12.3348 0.157517 0.141392 0.00113922 0.000411501 0.000267402 0.000239804 4.84452e-05
threshold=1.0000000180025095e-35 0.063403655864635491 0.033381086576174314 0.78921125287118798 0.14758158508158503 20.500000000000004 19.836782361225819 0.86192284662470475 0.047594351412381143 430.5311489449353 0.035656956347692566 0.058135098257985005 0.063087097093307662
decision_type=2 2 2 2 2 2 2 2 2 2 2 2 2
left_child=3 2 -2 4 7 6 -3 -1 10 -8 -9 -11 -13
right_child=1 5 -4 -5 -6 -7 9 8 -10 11 -12 12 -14
leaf_value=-0.082319387541060204 -0.074322955986917016 0.08160150963639079 0.073526390057506927 0.024962717395903996 -0.0011991317454439409 0.020383659223376191 0.091872026507057711 -0.091254946028547723 -0.092305845265545527 0.091623393849000964 -0.091695056351107904 0.091122130344971811 0.091335925402769164
leaf_weight=4.9649725407362046 8.197635278105734 4.9585004746913937 5.2173766940832129 7.2451535612344733 4.9992811679840079 8.4876441806554777 5.2081398367881802 6.4399473369121569 6.2042796909809104 5.7013489753007915 7.4368197172880173 5.6954190433025342 4.9548368006944656
leaf_count=20 33 20 21 29 20 34 21 26 25 23 30 23 20
internal_value=0.00289609 0.0480033 -0.0168213 -0.0556748 -0.0751198 0.0728455 0.0896369 -0.0898746 -0.0917426 0.091485 -0.0914908 0.0913617 0.0912216
internal_weight=85.7114 48.4209 13.415 37.2905 30.0453 35.0059 26.5182 25.046 20.081 21.5597 13.8768 16.3516 10.6503
internal_count=345 195 54 150 121 141 107 101 81 87 56 66 43
is_linear=0
shrinkage=0.05


Tree=3
num_leaves=14
num_cat=0
split_feature=10 18 11 14 18 7 10 6 1 18 10 18 10
split_gain=82.3813 28.3952 25.3507 21.3469 12.0577 11.3998 0.157906 0.151115 0.00240111 0.000967986 0.000490445 0.000405534 1.41791e-05
threshold=1.0000000180025095e-35 0.063403655864635491 0.033381086576174314 0.78921125287118798 0.14758158508158503 20.500000000000004 0.1583462848047606 0.37119815668202766 0.86394874323054294 0.11219233972115367 0.041029365634254487 0.069526842442078282 0.072081023895696178
decision_type=2 2 2 2 2 2 2 2 2 2 2 2 2
left_child=3 2 -2 4 7 6 9 -1 11 -3 -11 -9 -12
right_child=1 5 -4 -5 -6 -7 -8 8 -10 10 12 -13 -14
leaf_value=-0.078408528979504857 -0.071136208414556187 0.088569695330393231 0.070362676962117218 0.023713427753003613 -0.0011391568150750648 0.019379375506251226 0.07820908760632872 -0.087658568934760026 -0.089070047298374644 0.088156349451020577 0.087520416777528767 -0.088220151119742463 0.087637942765195931
leaf_weight=4.9156248271465364 8.1380877345800382 5.1622008681297364 5.1802766919136038 7.2454868853092185 4.999351203441619 8.4812789559364301 5.1499722450971595 9.3109425157308596 5.6608495265245429 5.6456860005855551 5.3881728500127775 4.9099035114049903 4.9004787504673004
leaf_count=20 33 21 21 29 20 34 21 38 23 23 22 20 20
internal_value=0.00277156 0.04597 -0.0160992 -0.0532597 -0.0719768 0.069774 0.0860585 -0.0862583 -0.0881991 0.0879747 0.0877819 -0.0878525 0.0875764
internal_weight=85.0883 48.0462 13.3184 37.0422 29.7967 34.7278 26.2465 24.7973 19.8817 21.0965 15.9343 14.2208 10.2887
internal_count=345 195 54 150 121 141 107 101 81 86 65 58 42
is_linear=0
shrinkage=0.05


Tree=4
num_leaves=15
num_cat=0
split_feature=10 18 11 5 18 8 11 18 10 9 18 9 5 10
split_gain=75.1144 25.9217 23.1072 19.9007 14.1884 10.9399 6.63795 0.991023 0.174019 0.157793 0.0276899 0.0141056 0.00713583 5.93028e-05
threshold=1.0000000180025095e-35 0.063403655864635491 0.033381086576174314 0.1469296282931746 0.13693181818181818 20.879336652620818 0.061595203300676124 0.092994573408038614 0.032687393598507287 6.2570251198851485 0.080424247791287762 15.983141648910662 0.025878246657811101 0.13880418962915844
decision_type=2 2 2 2 2 2 2 2 2 2 2 2 2 2
left_child=3 2 -2 6 -5 7 9 -3 -9 -1 12 13 -11 -10
right_child=1 5 -4 4 -6 -7 -8 8 11 10 -12 -13 -14 -15
leaf_value=-0.077758773311254595 -0.068242784174153748 0.059574022208767535 0.067486673820356086 -0.049765245248377547 0.068649270819860192 0.00046140611571969178 -0.021387440559542018 0.074896980072762465 0.08451709703933255 -0.085204350033724924 -0.091148309494583066 0.087555349980152172 -0.087696909091455832 0.084735687249222813
leaf_weight=4.8627962917089524 8.0609044879674894 5.373784393072131 5.1321877241134635 5.1321448534727079 4.9885928183794022 5.2355217337608329 4.9257904440164557 4.8457158207893398 7.973026320338251 4.8391813784837741 4.9029630273580542 5.8581843078136435 7.0613514631986618 5.0795830637216568
leaf_count=20 33 22 21 21 20 21 20 20 33 20 20 24 29 21
internal_value=0.00265859 0.0441333 -0.0154433 -0.0510691 0.00860222 0.0670049 -0.0737795 0.0789646 0.0833508 -0.0856907 -0.0879861 0.085517 -0.0866833 0.0846022
internal_weight=84.2717 47.5589 13.1931 36.7128 10.1207 34.3658 26.5921 29.1303 23.7565 21.6663 16.8035 18.9108 11.9005 13.0526
internal_count=345 195 54 150 41 141 109 120 98 89 69 78 49 54
is_linear=0
shrinkage=0.05


Tree=5
num_leaves=15
num_cat=0
split_feature=5 14 3 11 18 10 11 8 10 18 10 3 6 3
split_gain=79.0058 37.462 21.4362 16.7644 9.7413 6.49582 2.32467 1.26186 0.264227 0.14338 0.0327751 0.000706651 8.8123e-05 3.34887e-05
threshold=0.10030484484736502 0.7620063794093167 372.37719109226811 0.017503018370363506 0.11930641821946171 0.044995887607083639 0.054847611704515381 20.252386310829696 0.0015656309474793471 0.099775820434359078 0.044995887607083639 465.0593732760795 0.4198304268303506 350.3019480519481
decision_type=2 2 2 2 2 2 2 2 2 2 2 2 2 2
left_child=1 6 -2 -3 5 -4 9 8 -6 10 12 -10 -1 -14
right_child=2 3 4 -5 7 -7 -8 -9 11 -11 -12 -13 13 -15
leaf_value=-0.081825224428023757 -0.047153538617326796 -0.02557202082734969 -0.018499373665137694 0.081199639213895919 0.095207229123152493 0.060384181279329319 -0.047117288490316649 0.060490685764939468 0.08249855811007005 -0.091854920737209245 -0.086289732549962805 0.081760844308768732 -0.081665915417907464 -0.081484293934555085
leaf_weight=4.9907892793417075 5.1068294048309317 9.2597224414348585 5.1077114492654783 6.0969904065132132 5.4407337307930055 5.3363425731658936 4.8702881336212149 6.6031939834356299 5.9616945683956128 5.5989226400852194 5.0876591056585303 7.1266054958105087 4.7479492127895337 5.4530869126319885
leaf_count=21 21 38 21 25 22 22 20 27 25 23 21 30 20 23
internal_value=-0.00214404 -0.0469566 0.0486412 0.0168189 0.0623921 0.0218058 -0.0788077 0.0792583 0.0859465 -0.0847718 -0.0828163 0.0820969 -0.0816531 -0.0815688
internal_weight=86.7885 46.1054 40.6831 15.3567 35.5763 10.4441 30.7487 25.1322 18.529 25.8784 20.2795 13.0883 15.1918 10.201
internal_count=359 191 168 63 147 43 128 104 77 108 85 55 64 43
is_linear=0
shrinkage=0.05


Tree=6
num_leaves=15
num_cat=0
split_feature=5 14 7 11 5 18 11 18 5 18 10 10 6 3
split_gain=72.1454 34.4549 24.3162 15.3031 12.9002 2.78709 2.24572 0.113122 0.105142 0.0878326 0.0257862 0.0120596 6.88534e-05 2.61577e-05
threshold=0.10030484484736502 0.7620063794093167 20.500000000000004 0.017503018370363506 0.19049306548415088 0.11363636363636366 0.054847611704515381 0.099775820434359078 0.17278429497005629 0.16313563569848497 0.044995887607083639 0.066440927367023353 0.4198304268303506 350.3019480519481
decision_type=2 2 2 2 2 2 2 2 2 2 2 2 2 2
left_child=1 6 5 -3 -4 -2 7 10 -7 -10 12 -11 -1 -14
right_child=2 3 4 -5 -6 8 -8 -9 9 11 -12 -13 13 -15
leaf_value=-0.079324932763599199 0.042088847256102062 -0.02430682764611385 -0.063226401003364394 0.078082076633956721 0.03759915161755259 0.08609330457461456 -0.044874473278636674 -0.088296147453690646 0.073178294530595323 0.083291000612849275 -0.083318809297056359 0.079758532825735806 -0.079182697104779168 -0.079020569058865425
leaf_weight=4.8931515067815878 5.7347674816846874 9.2547334283590299 6.0643849819898588 6.0251899510622016 6.652589276432991 7.4240933954715755 4.858311414718627 5.5349294692277899 4.722687065601348 4.7589189857244474 5.0076182633638373 4.9077940881252289 4.6543631255626661 5.3446810990571976
leaf_count=21 24 38 25 25 27 31 20 23 20 20 21 21 20 23
internal_value=-0.00206009 -0.045147 0.0467065 0.0160672 -0.0104819 0.0731061 -0.0760237 -0.0819735 0.0812606 0.0787671 -0.0802149 0.0814976 -0.0791712 -0.079096
internal_weight=85.8382 45.573 40.2652 15.2799 12.717 27.5483 30.2931 25.4347 21.8135 14.3894 19.8998 9.66671 14.8922 9.99904
internal_count=359 191 168 63 52 116 128 108 92 61 85 41 64 43
is_linear=0
shrinkage=0.05


Tree=7
num_leaves=15
num_cat=0
split_feature=15 14 7 10 15 1 18 10 1 10 0 2 6 0
split_gain=65.9887 31.7795 22.4174 14.023 11.6928 5.45808 2.66988 1.30807 0.136027 0.193733 0.0510424 0.00851224 0.00188447 0.000324759
threshold=0.10030484484736502 0.7620063794093167 20.500000000000004 0.067879140451079581 0.19049306548415088 0.44083872847143973 0.11363636363636366 0.059539213002834969 0.54845954449821721 0.0015656309474793471 4.4639447650422923 0.022890954365976171 0.44482947607082873 4.9264560928878627
decision_type=2 2 2 2 2 2 2 2 2 2 2 2 2 2
left_child=1 7 6 5 -4 -3 -2 10 9 -8 -1 12 -12 -11
right_child=2 3 4 -5 -6 -7 8 -9 -10 13 11 -13 -14 -15
leaf_value=-0.083881191519206769 0.040167859372359421 0.016717791000496574 -0.060373779571290892 0.086554820733691612 0.035783443563651512 -0.055777083761102214 0.088849869919531574 -0.054427826551013872 0.071095352134223744 0.077461024305804621 -0.078040833590210981 -0.079903121034158808 -0.076857157760252717 0.076931818950351144
leaf_weight=4.7495947182178559 5.7092255800962475 5.5724268108606321 6.0341216772794706 4.752921611070632 6.6409312188625336 4.8614597916603088 5.1244494169950547 6.8983626663684836 4.6639249920845023 5.4899363666772825 6.4311435520648974 4.649131938815116 7.0470784306526184 6.1428188681602478
leaf_count=20 24 23 25 20 27 20 21 29 20 24 28 20 31 27
internal_value=-0.00198285 -0.0434914 0.0449031 0.0153679 -0.00999344 -0.0170597 0.0705502 -0.0735124 0.0786478 0.0807498 -0.0792672 -0.0780583 -0.0774219 0.0771816
internal_weight=84.7675 44.9621 39.8054 15.1868 12.6751 10.4339 27.1304 29.7753 21.4211 16.7572 22.8769 18.1274 13.4782 11.6328
internal_count=359 191 168 63 52 43 116 128 92 72 99 79 59 51
is_linear=0
shrinkage=0.05


Tree=8
num_leaves=13
num_cat=0
split_feature=15 14 7 11 3 18 11 1 10 18 15 0
split_gain=60.4493 29.3745 20.7111 13.905 10.9519 2.57233 2.29512 0.131803 0.152064 0.0749231 0.000925142 0.000257894
threshold=0.10030484484736502 0.7620063794093167 20.500000000000004 0.017503018370363506 460.07500000000005 0.11363636363636366 0.054847611704515381 0.54845954449821721 0.0015656309474793471 0.069526842442078282 0.047921956283149804 4.9264560928878627
decision_type=2 2 2 2 2 2 2 2 2 2 2 2
left_child=1 6 5 -3 -4 -2 9 8 -7 10 -1 -10
right_child=2 3 4 -5 -6 7 -8 -9 11 -11 -12 -13
leaf_value=-0.075227410783680101 0.038355235368033397 -0.023756378346115683 -0.051183002233815333 0.074628616377205415 0.042555236275290578 0.085587864748435216 -0.039603904397260484 0.068783069796609517 0.075415009662707755 -0.081622421129240355 -0.075964970894219441 0.074937692045185383
leaf_weight=8.4662004411220639 5.6808120757341412 9.1854144036769849 7.0137706100940687 5.8968810141086569 5.6070296615362167 5.0554801225662294 4.7995115220546714 4.5817606896162024 5.3602160513401014 7.4086548686027518 8.5405682176351529 5.9947155714035034
leaf_count=38 24 38 29 25 23 21 20 20 24 32 38 27
internal_value=-0.0019115 -0.0419575 0.0432338 0.0147102 -0.00953801 0.0682037 -0.0712124 0.0762811 0.0783746 -0.0774259 -0.0755978 0.075163
internal_weight=83.591 44.2972 39.2938 15.0823 12.6208 26.673 29.2149 20.9922 16.4104 24.4154 17.0068 11.3549
internal_count=359 191 168 63 52 116 128 92 72 108 76 51
is_linear=0
shrinkage=0.05


Tree=9
num_leaves=15
num_cat=0
split_feature=5 14 7 10 10 1 18 10 1 10 0 2 6 0
split_gain=55.4514 27.2271 19.1831 12.9706 10.3206 4.79081 2.49282 1.36807 0.129163 0.120293 0.0323668 0.00719817 0.00179713 0.00020607
threshold=0.10030484484736502 0.7620063794093167 20.500000000000004 0.067879140451079581 0.066440927367023353 0.44083872847143973 0.11363636363636366 0.059539213002834969 0.54845954449821721 0.0015656309474793471 4.4639447650422923 0.022890954365976171 0.44482947607082873 4.9264560928878627
decision_type=2 2 2 2 2 2 2 2 2 2 2 2 2 2
left_child=1 7 6 5 -4 -3 -2 10 9 -8 -1 12 -12 -11
right_child=2 3 4 -5 -6 -7 8 -9 -10 13 11 -13 -14 -15
leaf_value=-0.078949302981724562 0.036640805818159601 0.014695818104490008 -0.046711633115981845 0.083516857212095799 0.045484300007144061 -0.053558373764431094 0.082704496237860178 -0.049455657188280384 0.066653588757652329 0.073569574866991977 -0.074234780732107875 -0.075949100068550129 -0.073050091551292426 0.073137305459730129
leaf_weight=4.57032178342343 5.650076404213908 5.5182352662086469 7.4409335702657682 4.6416842490434638 5.1269224286079407 4.8135408312082291 4.9722302407026353 6.750400021672248 4.4939653426408759 5.2234038114547712 6.1343947947025317 4.4564497321844092 6.6948564201593399 5.8391115665435791
leaf_count=20 24 23 31 20 21 20 21 29 20 24 28 20 31 27
internal_value=-0.0018449 -0.0405377 0.0416744 0.0140882 -0.00910129 -0.0171036 0.0660508 -0.0691306 0.0741452 0.0762448 -0.0752073 -0.0742179 -0.0736166 0.0733414
internal_weight=82.3265 43.5799 38.7466 14.9735 12.5679 10.3318 26.1788 28.6064 20.5287 16.0347 21.856 17.2857 12.8293 11.0625
internal_count=359 191 168 63 52 43 116 128 92 72 99 79 59 51
is_linear=0
shrinkage=0.05


Tree=10
num_leaves=14
num_cat=0
split_feature=3 18 11 4 14 2 1 6 3 3 6 1 9
split_gain=44.0633 32.5768 36.8092 6.51189 4.61813 2.20952 2.64266 1.07975 0.260247 0.119542 0.10998 0.107767 0.0991913
threshold=372.37719109226811 0.11930641821946171 0.010198451687017725 0.025350980228369461 0.78921125287118798 0.04954658699578602 0.47478862754501738 0.43900390593949795 449.96022727272731 431.00611319401054 0.36906965831504829 1.2730830205501584 15.061920870644725
decision_type=2 2 2 2 2 2 2 2 2 2 2 2 2
left_child=5 2 4 9 8 6 -1 10 -2 -4 -3 -7 -12
right_child=1 7 3 -5 -6 11 -8 -9 -10 -11 12 -13 -14
leaf_value=-0.068850220608720591 -0.061285013802877319 0.079663229142638736 0.07182053302800101 0.010804030495098541 -0.021228551344210974 -0.082909694031385137 -0.016120966119013775 0.051673947599318475 -0.076697197829183703 0.083050056546052423 0.066019263910529383 -0.072388191256209294 0.075501424533954642
leaf_weight=5.0484671741724032 4.3137479871511477 7.0987248569727006 4.5862800031900388 5.9211330562829962 7.659776732325553 5.0885828137397748 4.4890310615301132 6.9495939314365378 7.5032892674207687 4.9041155427694321 4.5605392009019834 4.6646822690963745 6.9781013280153275
leaf_count=23 20 31 20 25 32 22 20 31 34 21 21 20 32
internal_value=0.00465407 0.0256428 -0.00578437 0.0519513 -0.0514692 -0.0611441 -0.044032 0.0684943 -0.0710711 0.0776233 0.0747663 -0.0778776 0.0717537
internal_weight=79.7661 60.4753 34.8883 15.4115 19.4768 19.2908 9.5375 25.587 11.817 9.4904 18.6374 9.75327 11.5386
internal_count=352 267 152 66 86 85 43 115 54 41 84 42 53
is_linear=0
shrinkage=0.05


Tree=11
num_leaves=15
num_cat=0
split_feature=10 5 14 6 18 11 11 8 13 0 5 16 12 5
split_gain=52.7891 15.5119 14.9317 10.3716 8.16151 21.2629 3.27121 1.01359 0.236844 0.223633 0.0648317 0.0297592 0.00974691 0.00523107
threshold=1.0000000180025095e-35 0.1469296282931746 0.68831726445321462 0.4198304268303506 0.071428571428571466 0.023837825729152957 0.045037803948046067 20.462978267511655 8.1998197083837461 4.9784884001881284 0.150778303750669 0.94995381813944169 0.061824384485879291 0.035656956347692566
decision_type=2 2 2 2 2 2 2 2 2 2 2 2 2 2
left_child=1 6 -2 -3 5 -4 8 9 -1 10 -6 -10 -12 -13
right_child=2 3 4 -5 7 -7 -8 -9 11 -11 12 13 -14 -15
leaf_value=-0.062251000370809641 -0.041233996281202445 0.059341616536763488 -0.048884606974579317 -0.043487524138019699 0.078017345689340545 0.079244765969865683 -0.026190003618707526 0.047697710714816988 -0.078797401905060113 0.061474303479884675 0.070141301254487406 -0.075206764326067932 0.07332253190652728 -0.072966619435579638
leaf_weight=4.2464781999588075 4.9671371281146994 5.1839128434658033 6.1752393245697004 4.6534066647291183 7.0227167755365469 6.8071423470973969 4.6840123832225791 5.5376446396112433 4.9224640280008307 4.217166230082511 4.9123166352510435 5.1825872808694822 4.7225382924079895 5.2418510466814041
leaf_count=20 21 22 27 20 31 30 20 24 22 20 24 24 22 25
internal_value=0.00449754 -0.0422659 0.040459 0.0106997 0.0507594 0.0182984 -0.0637278 0.0667149 -0.0727016 0.0717597 0.0743637 -0.0755933 0.0717006 -0.0740803
internal_weight=78.4766 34.1147 44.3619 9.83732 39.3948 12.9824 24.2774 26.4124 19.5934 20.8747 16.6576 15.3469 9.63485 10.4244
internal_count=352 153 199 42 178 57 111 121 91 97 77 71 46 49
is_linear=0
shrinkage=0.05


Tree=12
num_leaves=14
num_cat=0
split_feature=10 14 14 18 18 11 8 0 18 5 5 6 12
split_gain=48.5971 14.6335 13.778 9.43301 7.5995 19.6088 1.01321 0.2149 0.201882 0.0585629 0.0522222 0.0144713 0.00793363
threshold=1.0000000180025095e-35 0.81018062408281666 0.68831726445321462 0.12446544560614047 0.071428571428571466 0.023837825729152957 20.462978267511655 4.9784884001881284 0.021087713639084078 0.10519385220198764 0.150778303750669 0.46560348605461227 0.061824384485879291
decision_type=2 2 2 2 2 2 2 2 2 2 2 2 2
left_child=1 3 -2 8 5 -4 7 10 -1 11 -6 -10 -12
right_child=2 -3 4 -5 6 -7 -8 -9 9 -11 12 -13 -14
leaf_value=-0.062120099712177183 -0.039251361207594336 0.037815119771067801 -0.047053030579322051 -0.0068446652684616268 0.075950835097718036 0.07708439677421669 0.045817792909306133 0.059845463067006777 -0.073904427629952044 -0.079280455211222137 0.068777055139085122 -0.070290262426305802 0.071689700960444816
leaf_weight=4.1290095001459184 4.9573725759983054 5.0212751775979987 6.096847325563429 7.551343858242034 6.8572900891304114 6.6519482731819153 5.4781408160924903 4.1178817600011817 8.0016496628522891 4.5818448364734641 4.7630527913570386 4.2359027862548819 4.5919064879417419
leaf_count=20 21 21 27 33 31 30 24 20 38 20 24 21 22
internal_value=0.0043575 -0.0408893 0.039213 -0.054756 0.0493014 0.0177182 0.0649029 0.0700455 -0.0720267 -0.0744587 0.0726363 -0.0726534 0.0702067
internal_weight=77.0355 33.521 43.5144 28.4998 38.5571 12.7488 25.8083 20.3301 20.9484 16.8194 16.2122 12.2376 9.35496
internal_count=352 153 199 132 178 57 121 97 99 79 77 59 46
is_linear=0
shrinkage=0.05


Tree=13
num_leaves=15
num_cat=0
split_feature=10 5 14 6 18 10 14 8 0 5 0 12 8 0
split_gain=44.7631 14.1897 12.7318 9.17036 7.08443 6.17122 2.58556 1.01583 0.208414 0.0422836 0.036262 0.0064854 0.00339357 0.00105257
threshold=1.0000000180025095e-35 0.1469296282931746 0.68831726445321462 0.4198304268303506 0.071428571428571466 0.091810729882408182 0.78921125287118798 20.462978267511655 4.9784884001881284 0.150778303750669 4.6702239444041735 0.061824384485879291 20.462978267511655 4.9442093678921628
decision_type=2 2 2 2 2 2 2 2 2 2 2 2 2 2
left_child=1 6 -2 -3 5 -4 10 8 9 -6 -1 -11 13 -12
right_child=2 3 4 -5 7 -7 -8 -9 -10 11 12 -13 -14 -15
leaf_value=-0.073356166283562327 -0.037386187873342892 0.057328321915296979 -0.0094818993999230064 -0.040127744632411866 0.074084920485600558 0.063458343764135047 -0.031078181839370514 0.044034774755917466 0.058309229056079728 0.06752910938501927 -0.06850200976143983 0.070203457377473355 -0.069701768171493789 -0.067349440328524662
leaf_weight=5.7321639209985795 4.9447746723890296 5.111977279186247 7.9334231019020063 4.5733404457569122 6.6829153448343339 4.5704810619354248 5.5915570110082617 5.4165430516004553 4.0176128149032584 4.6123421192169172 3.9099245518445951 4.4580570310354233 4.0189463943243027 4.0149866491556168
leaf_count=27 21 22 36 20 31 21 23 24 20 24 20 22 20 21
internal_value=0.00422247 -0.0395441 0.0380491 0.0113102 0.0479455 0.0171795 -0.0607127 0.0632188 0.0684746 0.0710671 -0.0700872 0.0688435 -0.0685183 -0.0679181
internal_weight=75.589 32.9529 42.6361 9.68532 37.6914 12.5039 23.2676 25.1875 19.7709 15.7533 17.676 9.0704 11.9439 7.92491
internal_count=352 153 199 42 178 57 111 121 97 77 88 46 61 41
is_linear=0
shrinkage=0.05


Tree=14
num_leaves=15
num_cat=0
split_feature=10 5 14 6 11 18 11 18 18 10 9 14 14 2
split_gain=41.1877 13.2196 11.7132 8.36077 7.15299 16.4069 3.29866 1.80777 0.256823 0.245992 0.236297 0.221589 0.0272282 0.00908504
threshold=1.0000000180025095e-35 0.1469296282931746 0.68831726445321462 0.4198304268303506 0.033381086576174314 0.06249999999999991 0.045037803948046067 0.13214285714285715 0.12804334989965796 0.080388810911683511 8.1998197083837461 0.75972296633529512 0.7810434895628241 0.022890954365976171
decision_type=2 2 2 2 2 2 2 2 2 2 2 2 2 2
left_child=1 6 -2 -3 5 -4 10 -7 12 -9 -1 13 -6 -12
right_child=2 3 4 -5 8 7 -8 9 -10 -11 11 -13 -14 -15
leaf_value=-0.057474654515035167 -0.035627429063532036 0.055107530496970383 -0.054404453019685377 -0.038333760464369121 0.077484409487742725 0.02910139829500932 -0.021002028484527299 0.05583217277828173 0.062353911655155428 0.072408505781961632 -0.06645095606163906 -0.081315748088825912 0.072317575205667409 -0.069507651453151797
leaf_weight=3.7489901632070604 4.9298111945390692 5.0535773485898954 4.8258132487535503 4.5486347377300262 4.6340921372175234 5.4542323648929587 4.5379211902618399 3.8608076572418195 7.2411651015281668 5.3250897526741028 6.324659734964369 4.1499169617891303 5.669206976890564 3.9484628438949585
leaf_count=19 21 22 22 20 21 25 20 20 37 26 34 18 27 20
internal_value=0.00408627 -0.0383396 0.0367726 0.0108437 0.0464163 0.0255482 -0.0591353 0.0519029 0.06957 0.0654415 -0.0686579 -0.0715648 0.0746415 -0.0676258
internal_weight=74.2524 32.3122 41.9402 9.60221 37.0104 19.4659 22.71 14.6401 17.5445 9.1859 18.172 14.423 10.3033 10.2731
internal_count=352 153 199 42 178 93 111 71 85 46 91 72 48 54
is_linear=0
shrinkage=0.05


Tree=15
num_leaves=14
num_cat=0
split_feature=15 14 11 18 18 11 13 7 12 18 3 12 16
split_gain=33.2829 27.7364 13.0636 10.1128 6.26429 5.52108 0.960936 0.143856 0.0870656 0.0797024 0.0765823 0.0113996 0.00114207
threshold=0.1469296282931746 0.7620063794093167 0.010198451687017725 0.13749999999999996 0.06249999999999991 0.066649320766822742 15.991711570447423 22.500000000000004 0.063609459407967514 0.071428571428571466 435.00000000000006 0.0078008657989493699 0.95346320346320368
decision_type=2 2 2 2 2 2 2 2 2 2 2 2 2
left_child=1 5 4 -2 -3 7 10 8 9 12 -5 -12 -1
right_child=3 2 -4 6 -6 -7 -8 -9 -10 -11 11 -13 -14
leaf_value=-0.066893583919413677 -0.0017519937871280315 -0.057513568711013298 0.069980270922553031 0.076992482930361372 0.022281489419825586 -0.013860381611951647 0.046348354662077575 -0.07683763138033825 -0.061187218976408358 -0.074603339735693872 0.06672592437101578 0.070441274194998085 -0.065770907727382907
leaf_weight=5.227746158838281 8.7522297650575656 4.8090379089117068 7.7832411825656882 4.179676532745364 5.0344144552946091 5.6556655913591376 5.4771803319454184 4.6643262058496466 4.7634343653917304 4.3716533333063117 3.9031691551208478 4.3828779011964798 3.9974502176046371
leaf_count=28 39 21 37 20 23 25 27 22 25 22 21 22 22
internal_value=-0.00215386 -0.0277872 0.0215731 0.0423113 -0.0167025 -0.0581238 0.0638046 -0.0689964 -0.0670044 -0.0690424 0.0714745 0.0686911 -0.0664071
internal_weight=73.0021 46.307 17.6267 26.6951 9.84345 28.6803 17.9429 23.0246 18.3603 13.5968 12.4657 8.28605 9.2252
internal_count=354 225 81 129 44 144 90 119 97 72 63 43 50
is_linear=0
shrinkage=0.05


Tree=16
num_leaves=14
num_cat=0
split_feature=5 14 11 18 6 18 11 12 7 12 18 14 5
split_gain=30.6749 25.7117 12.1084 9.6866 8.51361 5.74854 5.34887 0.177671 0.124222 0.088423 0.0683625 0.0600393 0.000946509
threshold=0.1469296282931746 0.7620063794093167 0.010198451687017725 0.14776410353440297 0.42178488615587723 0.06249999999999991 0.066649320766822742 0.0078008657989493699 22.500000000000004 0.063609459407967514 0.071428571428571466 0.75591328617327214 0.046536796536796508
decision_type=2 2 2 2 2 2 2 2 2 2 2 2 2
left_child=1 6 5 4 -2 -3 8 -5 9 10 12 -9 -1
right_child=3 2 -4 7 -6 -7 -8 11 -10 -11 -12 -13 -14
leaf_value=-0.064769182983862944 0.040714945396159517 -0.055591521662776824 0.068178015599744166 0.06042474289820729 -0.048634121886501201 0.021254170584854182 -0.013180934771502523 0.075942868475950054 -0.075018750740644347 -0.05981325166509735 -0.073069152323823702 0.067802664988670935 -0.065809077169923458
leaf_weight=3.8598005473613828 6.809597313404085 4.7285982221364993 7.5943427830934516 5.9130638092756262 4.3815341591835022 5.0143861472606659 5.6499895900487891 4.200338274240492 4.541654795408248 4.6325494050979605 4.2435208410024634 4.9167208224534988 5.0526417791843414
leaf_count=22 31 21 37 32 20 23 25 20 22 25 22 26 28
internal_value=-0.00209066 -0.0269956 0.0208495 0.0409518 0.00573314 -0.0160416 -0.0566418 0.067175 -0.0676382 -0.0657539 -0.0678458 0.071553 -0.0653587
internal_weight=71.5387 45.3175 17.3373 26.2213 11.1911 9.74298 27.9802 15.0301 22.3302 17.7885 13.156 9.11706 8.91244
internal_count=354 225 81 129 51 44 144 78 119 97 72 46 50
is_linear=0
shrinkage=0.05


Tree=17
num_leaves=14
num_cat=0
split_feature=5 14 10 18 0 14 10 8 10 10 18 3 0
split_gain=28.3212 23.8535 12.3085 9.19579 6.33673 3.1802 4.71952 0.951853 0.174709 0.118821 0.00975849 0.00456576 0.00185727
threshold=0.1469296282931746 0.7620063794093167 0.075685207699878118 0.13749999999999996 4.8616157242276419 0.72232954470921762 0.0037635289661005077 20.385576988643596 0.044995887607083639 1.0000000180025095e-35 0.11856362170581232 307.58611111111117 4.9377824412326001
decision_type=2 2 2 2 2 2 2 2 2 2 2 2 2
left_child=1 5 4 -2 -3 8 -7 9 10 -5 11 -1 -11
right_child=3 2 -4 7 -6 6 -8 -9 -10 12 -12 -13 -14
leaf_value=-0.064489682102752854 -0.0021660029239328705 -0.058374208863710433 0.074663835086795236 0.074379688177968806 0.01995123416965491 -0.064387417148251289 -0.00084267108810952068 0.0396228759903317 -0.078647084083909788 0.063622606957117564 -0.068856638073479179 -0.066994933320937061 0.065099079117201461
leaf_weight=3.6249031424522382 8.6738878339529055 4.454338267445566 6.4430035203695288 4.3252510577440288 6.1440934836864471 6.4685074537992477 5.3294327557086945 3.9619562327861777 4.3442154079675683 5.0468598455190641 3.8608987480401993 3.649801105260849 3.6851976811885834
leaf_count=21 39 20 33 20 28 38 25 19 20 30 20 20 21
internal_value=-0.00203177 -0.0262449 0.020164 0.0397345 -0.0129676 -0.0552383 -0.0356826 0.0610891 -0.0701426 0.0676026 -0.0668249 -0.0657466 0.0642457
internal_weight=70.0123 44.3192 17.0414 25.6932 10.5984 27.2778 11.7979 17.0193 15.4798 13.0573 11.1356 7.2747 8.73206
internal_count=354 225 81 129 48 144 63 90 81 71 61 41 51
is_linear=0
shrinkage=0.05


Tree=18
num_leaves=15
num_cat=0
split_feature=15 14 10 11 10 11 1 13 8 12 10 0 11 3
split_gain=26.1254 22.1653 11.4932 18.1553 6.36409 5.2914 3.84292 1.13914 0.129063 0.123315 0.19707 0.00774217 0.00118441 0.000859596
threshold=0.1469296282931746 0.7620063794093167 0.075685207699878118 0.017503018370363506 1.0000000180025095e-35 0.066649320766822742 0.47893561138689517 15.991711570447423 20.12875210000464 0.12733402587307796 0.044995887607083639 4.6861471861471875 0.028996459959115831 350.3019480519481
decision_type=2 2 2 2 2 2 2 2 2 2 2 2 2 2
left_child=1 5 3 -3 6 9 -2 8 12 10 11 -1 -6 -13
right_child=4 2 -4 -5 7 -7 -8 -9 -10 -11 -12 13 -14 -15
leaf_value=-0.065540705274019354 0.040945255359390996 -0.066953530143587861 0.073186927504015925 0.066553489400280358 0.062894505883928753 -0.01062482720784489 -0.021420591480412546 0.037900883886636753 0.074971989216545826 -0.0572177684179822 -0.075472966178720499 -0.063457726029394701 0.064213655748980539 -0.062416435133038441
leaf_weight=4.0520701408386328 4.5865925550460833 6.2314575165510195 6.249286636710166 4.3061375916004181 3.4196021258831006 5.5732592791318885 5.3527020663022995 4.5805418938398352 3.885724201798439 3.7525283098220816 5.0950429737567893 3.4713370800018293 3.3869028389453888 4.6193004548549652
leaf_count=23 21 28 33 20 21 25 24 24 19 21 25 21 20 29
internal_value=-0.00197307 -0.0255109 0.0194638 -0.0123965 0.0384985 -0.0539327 0.00735879 0.0587638 0.0677015 -0.0654316 -0.0672197 -0.0637567 0.0635509 -0.0628632
internal_weight=68.5625 43.3504 16.7869 10.5376 25.2121 26.5635 9.93929 15.2728 10.6922 20.9903 17.2378 12.1427 6.8065 8.09064
internal_count=354 225 81 48 129 144 45 84 60 119 98 73 41 50
is_linear=0
shrinkage=0.05


Tree=19
num_leaves=15
num_cat=0
split_feature=5 14 11 18 6 10 11 6 13 12 10 6 0 14
split_gain=24.1418 20.7076 11.7331 8.7895 7.77586 6.40047 3.31357 0.382294 0.16591 0.12701 0.172084 0.0273645 0.00723971 0.000420113
threshold=0.1469296282931746 0.75037609496656243 0.010198451687017725 0.14776410353440297 0.42178488615587723 0.059539213002834969 0.066649320766822742 0.43236270032500151 15.991711570447423 0.12733402587307796 0.044995887607083639 0.44240878276932832 4.6861471861471875 0.74512051312134076
decision_type=2 2 2 2 2 2 2 2 2 2 2 2 2 2
left_child=1 6 5 4 -2 -3 9 -4 11 10 12 -5 -1 -14
right_child=3 2 7 8 -6 -7 -8 -9 -10 -11 -12 -13 13 -15
leaf_value=-0.064694237966885615 0.037793733580279404 -0.062021494796641499 0.073297640906728925 0.064927361123193097 -0.048566712756094754 0.01757176304753278 -0.018962085770832204 0.0510515604078422 0.054852219250530077 -0.055928594237678 -0.074436090027461363 0.070197214916145473 -0.062391558792920236 -0.06163198588933641
leaf_weight=3.7587924301624351 6.6232965737581271 4.7108523994684237 3.9449627697467795 5.7536921352148038 4.2978749722242355 5.4454890489578247 5.0867671817541114 3.7832682579755783 3.7421790659427634 3.6497002243995658 4.5810331255197516 4.3076467216014862 3.4721455872058868 3.8266832381486893
leaf_count=22 31 22 20 34 20 27 23 20 21 21 23 23 22 25
internal_value=-0.0019199 -0.0248798 0.0159809 0.0373234 0.00380778 -0.0193463 -0.0548602 0.0624073 0.0638405 -0.0643273 -0.0662874 0.0671836 -0.0629114 -0.0619933
internal_weight=66.9844 42.2597 17.8846 24.7247 10.9212 10.1563 24.3751 7.72823 13.8035 19.2884 15.6387 10.0613 11.0576 7.29883
internal_count=354 225 89 129 51 49 136 40 78 113 92 57 69 47
is_linear=0
shrinkage=0.05


Tree=20
num_leaves=15
num_cat=0
split_feature=10 14 11 5 14 10 16 12 0 11 12 3 1 5
split_gain=29.2179 14.0838 8.73898 6.90235 8.14115 7.96378 4.16212 0.542304 0.371563 0.174929 0.117756 0.026067 0.00827876 0.00441103
threshold=1.0000000180025095e-35 0.81851792308192162 0.063087097093307662 0.19049306548415088 0.76549275352577928 0.091810729882408182 0.85532842655214136 0.063609459407967514 4.948095022151878 0.15027736993846144 0.039290211652946036 437.07057886636164 0.915266932328762 0.046536796536796508
decision_type=2 2 2 2 2 2 2 2 2 2 2 2 2 2
left_child=1 6 3 4 -2 -6 -1 -5 11 10 -4 12 13 -8
right_child=2 -3 9 7 5 -7 8 -9 -10 -11 -12 -13 -14 -15
leaf_value=-0.014895014020917505 -0.047594065354411658 0.046395380156114122 0.055871751878793091 0.040741508540734862 -0.024861024594605922 0.071150745441205962 -0.062252326654907708 0.067869810249567064 -0.049513228467795233 0.075435725415449351 0.067970056734831613 -0.069507033858027631 -0.066408445853201228 -0.064839308188949493
leaf_weight=6.3248420357704225 6.504945412278178 4.4683138430118552 3.6387147009372693 3.8802277296781531 4.0458933711051923 4.6329465061426163 3.4124541431665438 3.5074049383401871 4.6277745068073264 3.9027206003665915 4.496930867433548 3.6081716567277899 3.8948564976453781 3.1863222569227219
leaf_count=29 33 20 21 23 20 25 22 20 28 19 25 20 22 19
internal_value=0.00116071 -0.0353799 0.0323305 0.0139818 -0.00530462 0.0263921 -0.0499641 0.0536211 -0.0618067 0.0667335 0.062559 -0.065841 -0.0645804 -0.0635015
internal_weight=64.1325 29.5227 34.6098 22.5714 15.1838 8.67884 25.0544 7.38763 18.7296 12.0384 8.13565 14.1018 10.4936 6.59878
internal_count=346 160 186 121 78 45 140 43 111 65 46 83 63 41
is_linear=0
shrinkage=0.05


Tree=21
num_leaves=14
num_cat=0
split_feature=10 14 11 18 8 18 18 11 18 0 18 18 0
split_gain=27.0148 13.0148 8.21747 10.05 5.64744 5.55015 1.20487 0.544408 0.327753 0.130986 0.139575 0.0169897 0.00818875
threshold=1.0000000180025095e-35 0.81851792308192162 0.063087097093307662 0.060131477477925917 20.252386310829696 0.13749999999999996 0.10677558209604528 0.061595203300676124 0.12197612755099413 4.7253582760670563 0.074999999999999969 0.042693823408036027 4.8174790159395551
decision_type=2 2 2 2 2 2 2 2 2 2 2 2 2
left_child=1 5 3 -2 6 7 -5 9 -4 -1 11 -11 -8
right_child=2 -3 8 4 -6 -7 12 -9 -10 10 -12 -13 -14
leaf_value=-0.056859533635524644 -0.046227244064215932 0.044450886973544323 0.072334323922497085 0.030106716547373031 -0.013551409116500022 0.00083023670202829686 0.064685473625993875 -0.044012597674536767 0.055294309030306847 -0.0619868049010045 -0.075983530248053016 -0.066686261771705252 0.061382736369395278
leaf_weight=4.2218652665615179 5.3366423845291164 4.4315350800752631 6.914549380540846 4.4562643766403216 4.7655091881752005 4.5967359095811835 3.3888093829154968 4.1411465406417838 4.7677080780267715 5.2229990661144239 3.2233352810144416 3.0441450327634811 4.2062220573425293
leaf_count=26 28 20 35 23 22 23 20 20 30 35 17 19 28
internal_value=0.00113006 -0.0343883 0.0314481 0.0135546 0.0325258 -0.0486777 0.0507464 -0.0601404 0.06538 -0.064391 -0.0671582 -0.0637172 0.0628564
internal_weight=62.7175 28.8818 33.8357 22.1534 16.8168 24.4502 12.0513 19.8535 11.6823 15.7123 11.4905 8.26714 7.59503
internal_count=346 160 186 121 93 140 71 117 65 97 71 54 48
is_linear=0
shrinkage=0.05


Tree=22
num_leaves=14
num_cat=0
split_feature=10 14 11 18 14 18 8 11 18 0 18 5 3
split_gain=24.9741 12.0261 7.73832 9.28107 5.71216 5.29103 4.24447 0.562743 0.301787 0.131059 0.117163 0.0161172 0.0149586
threshold=1.0000000180025095e-35 0.81851792308192162 0.063087097093307662 0.10014007590638964 0.77403036973924422 0.13749999999999996 20.252386310829696 0.061595203300676124 0.12197612755099413 4.7253582760670563 0.074999999999999969 0.16257363830774821 436.40133541504446
decision_type=2 2 2 2 2 2 2 2 2 2 2 2 2
left_child=1 5 3 4 -2 7 11 9 -4 -1 12 -5 -11
right_child=2 -3 8 6 -6 -7 -8 -9 -10 10 -12 -13 -14
leaf_value=-0.055698908335849465 -0.064837260613791664 0.042606425015378327 0.070865564514893162 0.065414881904087313 0.011693558419971106 0.0007887059897881861 -0.0020577006288992508 -0.042429676017430251 0.054259539860138574 -0.061287570150206395 -0.074356369444451828 0.060904228754948331 -0.065783792996456397
leaf_weight=4.0975198298692801 4.4351490288972872 4.3931973725557318 6.7101522833108884 3.3014463335275632 5.4151134788990021 4.5968438982963553 3.6481611728668204 4.0823738723993293 4.619479238986969 5.0341534465551359 3.1315100193023682 4.9491812288761139 2.9244613349437714
leaf_count=26 23 20 35 19 28 23 17 20 30 35 17 34 19
internal_value=0.00109904 -0.0334181 0.030588 0.0131335 -0.022765 -0.047412 0.0428517 -0.0589103 0.0640947 -0.0633402 -0.0661634 0.0627091 -0.0629397
internal_weight=61.3387 28.2601 33.0787 21.7491 9.85026 23.8669 11.8988 19.27 11.3296 15.1876 11.0901 8.25063 7.95861
internal_count=346 160 186 121 51 140 70 117 65 97 71 53 54
is_linear=0
shrinkage=0.05


Tree=23
num_leaves=14
num_cat=0
split_feature=10 14 11 18 7 18 18 11 18 0 18 18 0
split_gain=23.1015 11.1167 7.29166 8.7579 6.86873 5.04782 0.780878 0.580596 0.280363 0.131795 0.0985234 0.0132136 0.00770108
threshold=1.0000000180025095e-35 0.81851792308192162 0.063087097093307662 0.060131477477925917 20.500000000000004 0.13749999999999996 0.10677558209604528 0.061595203300676124 0.12197612755099413 4.7253582760670563 0.074999999999999969 0.042693823408036027 4.7849553373275038
decision_type=2 2 2 2 2 2 2 2 2 2 2 2 2
left_child=1 5 3 -2 6 7 -5 9 -4 -1 11 -11 -8
right_child=2 -3 8 4 -6 -7 12 -9 -10 10 -12 -13 -14
leaf_value=-0.054575600572828856 -0.043992534194901123 0.040852815100239838 0.069517512031342363 0.033765315337387858 -0.01940083449590933 0.00074925279455899775 0.063244241191419817 -0.040908774713180156 0.053256902082802419 -0.060622794145470539 -0.072855417954312884 -0.064925169560842738 0.060006840276206543
leaf_weight=3.9758697152137854 5.1578484624624279 4.3537051528692237 6.5035011172294599 3.8802975416183489 4.7892298996448508 4.5969458371400824 3.2156475782394409 4.0239482074975959 4.4748139232397079 4.8239864408969861 3.0385827198624611 2.8324874192476273 4.2844990342855453
leaf_count=26 28 20 35 20 22 23 20 20 30 35 17 19 31
internal_value=0.00106878 -0.0324832 0.0297807 0.0127379 0.0308339 -0.0461912 0.0519742 -0.0577335 0.0628896 -0.0623482 -0.0652377 -0.0622144 0.0613949
internal_weight=59.9514 27.6455 32.3058 21.3275 16.1697 23.2918 11.3804 18.6949 10.9783 14.6709 10.6951 7.65647 7.50015
internal_count=346 160 186 121 93 140 71 117 65 97 71 54 51
is_linear=0
shrinkage=0.05


Tree=24
num_leaves=13
num_cat=0
split_feature=10 14 11 18 14 10 18 1 15 18 15 3
split_gain=21.3743 10.2791 6.88028 8.30942 7.46529 6.59089 4.88512 0.5394 0.284762 0.263842 0.0794464 0.0119077
threshold=1.0000000180025095e-35 0.81851792308192162 0.063087097093307662 0.14941767775966094 0.76549275352577928 0.091810729882408182 0.12446544560614047 0.23542697715214608 0.20023753731667915 0.1456966248159792 0.12771739130434781 350.3019480519481
decision_type=2 2 2 2 2 2 2 2 2 2 2 2
left_child=1 6 3 4 -2 -6 7 -1 -5 -4 11 -9
right_child=2 -3 9 8 5 -7 -8 10 -10 -11 -12 -13
leaf_value=-0.043655369657578692 -0.0516412610298587 0.039182182832849355 0.067771599362012436 0.046216262489230824 -0.021986141759192487 0.069763714727029455 -0.0077196195481609069 -0.060380400150414085 0.066391646006943458 0.051440771119809214 -0.071254272109684338 -0.06401792851330769
leaf_weight=4.0762462764978507 6.070254206657415 4.3134098798036566 6.7141035273671132 3.350560635328292 4.0627721846103668 3.7771172672510147 6.3344790488481513 4.4947564378380758 3.6588064059615135 3.9156269729137421 3.3164086043834677 4.5046729147434235
leaf_count=28 33 20 38 22 21 22 32 33 23 27 17 30
internal_value=0.00104105 -0.0315801 0.0289997 0.0123555 -0.0100139 0.0222173 -0.0450105 -0.059421 0.0567476 0.0617559 -0.064639 -0.0622012
internal_weight=58.5892 27.04 31.5492 20.9195 13.9101 7.83989 22.7266 16.3921 7.00937 10.6297 12.3158 8.99943
internal_count=346 160 186 121 76 43 140 108 45 65 80 63
is_linear=0
shrinkage=0.05


Tree=25
num_leaves=15
num_cat=0
split_feature=3 18 11 10 7 16 4 14 3 3 10 10 0 18
split_gain=21.8867 14.8893 15.2254 8.16022 5.58208 2.06583 1.13836 0.468247 0.439252 0.361545 0.0966808 0.0796281 0.00667025 0.00109219
threshold=372.37719109226811 0.14309051255747487 0.010198451687017725 0.10412189521428598 20.500000000000004 0.87228260869565222 0.06614133199033688 0.75591328617327214 140.72129629629632 431.9296765135104 0.028972409045968369 0.0037635289661005077 4.8100404440578588 0.049999999999999954
decision_type=2 2 2 2 2 2 2 2 2 2 2 2 2 2
left_child=6 2 3 5 7 -2 -1 -4 -8 -3 13 -11 -13 -7
right_child=1 9 4 -5 -6 10 8 -9 -10 11 -12 12 -14 -15
leaf_value=-0.035312905578378115 -0.020745383813756711 0.045658437521591114 0.044556616516321951 0.033303795901558998 -0.011329340171294828 -0.059903048561040541 -0.050810325108381904 0.067326893915224645 -0.072825521074664737 0.070346352823619993 -0.070708457838242117 0.062676130811128675 0.059568677875495538 -0.061338232924256476
leaf_weight=5.3867402896285048 3.5919089466333451 3.7211090251803389 3.8744030445814115 3.4423548579215995 4.2552999109029761 2.5671530067920667 3.7527879625558835 5.4108930602669716 5.7179030179977417 3.2290043234825117 4.3349399268627167 2.9772928431630135 4.1120224073529243 2.7410551682114601
leaf_count=34 18 23 20 19 21 20 20 34 34 17 23 20 31 20
internal_value=-0.00115523 0.0164723 -0.00329544 -0.0352753 0.0360929 -0.0531123 -0.0536641 0.0578257 -0.0641019 0.0590196 -0.0651684 0.0638381 0.0608737 -0.0606441
internal_weight=59.1149 44.2574 30.218 16.6774 13.5406 13.2351 14.8574 9.2853 9.47069 14.0394 9.64315 10.3183 7.08932 5.30821
internal_count=354 266 175 100 75 81 88 54 54 91 63 68 51 40
is_linear=0
shrinkage=0.05


Tree=26
num_leaves=15
num_cat=0
split_feature=3 18 11 10 7 16 4 14 3 3 10 10 0 18
split_gain=20.2297 13.9607 14.0401 7.57773 5.22169 2.05411 1.1082 0.557084 0.439865 0.370024 0.080645 0.0666142 0.00566042 0.00092199
threshold=372.37719109226811 0.14309051255747487 0.010198451687017725 0.10412189521428598 20.500000000000004 0.87228260869565222 0.06614133199033688 0.75201459693088479 140.72129629629632 431.9296765135104 0.028972409045968369 0.0037635289661005077 4.8100404440578588 0.049999999999999954
decision_type=2 2 2 2 2 2 2 2 2 2 2 2 2 2
left_child=6 2 3 5 7 -2 -1 -4 -8 -3 13 -11 -13 -7
right_child=1 9 4 -5 -6 10 8 -9 -10 11 -12 12 -14 -15
leaf_value=-0.033982108607037126 -0.019732633378823014 0.044384557706615674 0.041207114321280269 0.031753638365270995 -0.010757662629394697 -0.059350603359416915 -0.049248064585964368 0.066521622401265509 -0.071553883707461602 0.069062105853855818 -0.069403053743793505 0.061938981417171038 0.059019272838733351 -0.060696122389612056
leaf_weight=5.3195543959736815 3.5875585526228013 3.6386334747076026 3.6243986189365369 3.4302004724740973 4.2573075145483008 2.4641044661402685 3.6801112592220289 5.428287461400032 5.5332331582903862 3.127179764211176 4.1990984231233597 2.864936389029026 3.9469635039567947 2.6342550814151764
leaf_count=34 18 23 19 19 21 20 20 35 34 17 23 20 31 20
internal_value=-0.00112323 0.0160425 -0.00319948 -0.0342892 0.0349099 -0.0518709 -0.0521529 0.0563865 -0.0626442 0.0580265 -0.0642719 0.0630207 0.0602472 -0.0600458
internal_weight=57.7358 43.2029 29.6252 16.3152 13.31 12.885 14.5329 9.05269 9.21334 13.5777 9.29746 9.93908 6.8119 5.09836
internal_count=354 266 175 100 75 81 88 54 54 91 63 68 51 40
is_linear=0
shrinkage=0.05


Tree=27
num_leaves=16
num_cat=0
split_feature=7 11 18 5 10 1 14 14 12 9 7 10 14 1 16
split_gain=15.232 13.9206 18.3653 9.31053 4.30588 1.43999 1.10945 0.636827 0.23692 0.185224 0.180774 0.132793 0.0304438 0.0154118 0.00501367
threshold=20.500000000000004 1.0000000180025095e-35 0.11930641821946171 0.19049306548415088 0.066440927367023353 0.40171456422130797 0.75591328617327214 0.75037609496656243 0.070257876476760184 15.983141648910662 21.500000000000004 0.021508448454903913 0.78921125287118798 0.35903544710153262 0.89687391314949683
decision_type=2 2 2 2 2 2 2 2 2 2 2 2 2 2 2
left_child=1 2 4 5 8 -2 -4 -3 12 10 -7 -9 13 -1 -13
right_child=3 7 6 -5 -6 9 -8 11 -10 -11 -12 14 -14 -15 -16
leaf_value=-0.057422097985471071 -0.027384600179943066 0.042527891486077662 0.03103410500880234 0.022082169045546583 0.0071570920609496649 -0.053410671837975543 0.065369616079251 0.07246285433811013 -0.045921479695150348 -0.075548659322431072 -0.069688100114268917 0.05843359430720118 -0.066510487521014863 -0.063067430133822155 0.061427644292220619
leaf_weight=2.5804380327463168 2.8733969107270267 5.3436194956302634 4.8815872520208341 4.7752666771411887 3.3263300806283942 3.187787823379038 4.5413678362965584 3.2269710823893529 2.9777272194623947 4.1057056561112404 3.6688014790415764 3.1632328107953072 2.9451405853033066 2.2746844813227654 2.5058923661708832
leaf_count=23 18 32 32 23 18 21 29 18 19 22 22 26 16 17 18
internal_value=-0.00109229 0.0171518 -0.00646429 -0.0381148 -0.0425721 -0.0588912 0.047582 0.056171 -0.0579196 -0.0671496 -0.0621203 0.0643659 -0.0624999 -0.060067 0.059757
internal_weight=56.3779 37.767 23.5273 18.611 14.1043 13.8357 9.42296 14.2397 10.778 10.9623 6.85659 8.8961 7.80026 4.85512 5.66913
internal_count=354 248 154 106 93 83 61 94 75 65 43 62 56 40 44
is_linear=0
shrinkage=0.05


Tree=28
num_leaves=15
num_cat=0
split_feature=3 18 11 10 8 5 14 4 3 2 10 10 0 18
split_gain=17.8778 12.4519 12.1032 6.7943 4.61412 1.98457 1.19146 1.02398 0.445329 0.396719 0.0603484 0.0283704 0.010125 0.000682266
threshold=372.37719109226811 0.14309051255747487 0.010198451687017725 0.10412189521428598 20.12875210000464 0.13253326857394956 0.75037609496656243 0.06614133199033688 140.72129629629632 0.047594351412381143 0.028972409045968369 0.014622716159412715 4.8100404440578588 0.049999999999999954
decision_type=2 2 2 2 2 2 2 2 2 2 2 2 2 2
left_child=7 2 3 5 6 10 -4 -1 -9 11 13 -3 -13 -2
right_child=1 9 4 -5 -6 -7 -8 8 -10 -11 -12 12 -14 -15
leaf_value=-0.032427524033914829 -0.058340524468126244 0.065482399816966047 0.028168042657273424 0.030192295140153494 -0.015648824268280181 -0.018292358728825179 0.06525735946437547 -0.046829711472176766 -0.069849922403045508 0.040325623964469065 -0.067331179409466951 0.061994000673737483 0.058073751450083748 -0.059545309194916241
leaf_weight=5.1141640394926062 2.2706956788897532 2.8433302119374257 3.4397208243608457 3.3759286627173415 3.5291007086634627 3.5211695879697791 5.8443661630153656 3.5130453631281835 5.2264033555984497 2.9349994733929625 3.9753723070025444 2.6523121222853661 4.3456726372241974 2.4354736357927322
leaf_count=34 20 18 18 19 18 18 39 20 34 17 23 19 37 20
internal_value=-0.00106631 0.015467 -0.00297948 -0.0325859 0.0330169 -0.0499538 0.0515159 -0.0501976 -0.0605964 0.0564592 -0.0627954 0.0612708 0.0595596 -0.058964
internal_weight=55.0218 41.1681 28.3918 15.5786 12.8132 12.2027 9.28409 13.8536 8.73945 12.7763 8.68154 9.84131 6.99798 4.70617
internal_count=354 266 175 100 75 81 57 88 54 91 63 74 56 40
is_linear=0
shrinkage=0.05


Tree=29
num_leaves=14
num_cat=0
split_feature=3 18 11 10 14 13 4 3 1 3 18 6 10
split_gain=16.535 11.6945 11.218 6.87043 3.35656 1.80441 1.0014 0.447283 0.413065 0.129609 0.0316064 0.0292594 0.00315739
threshold=372.37719109226811 0.14309051255747487 0.039306141385336023 0.096486825702219267 0.7620063794093167 16.008313806083773 0.06614133199033688 140.72129629629632 0.89508956647350124 509.70292863216372 0.062045830689422134 0.37745297027619906 0.052569093007884322
decision_type=2 2 2 2 2 2 2 2 2 2 2 2 2
left_child=6 2 3 5 -4 9 -1 -8 11 10 -2 -3 -13
right_child=1 8 4 -5 -6 -7 7 -9 -10 -11 -12 12 -14
leaf_value=-0.031186217273681816 -0.059910049565774982 0.064686080057133596 0.010949671710892922 0.026022586597473238 0.065810785888742937 -0.015227219691517408 -0.045405155842608451 -0.068777145070826162 0.038160592956198634 -0.050021762475956313 -0.066970620024475846 0.060042003358331653 0.057815743013860714
leaf_weight=5.0534165501594535 3.6295011341571861 2.8142732754349691 6.2101560458540899 4.2133314087986937 5.0596139580011368 3.1426510959863654 3.4438816830515844 5.0470792949199677 2.6647154241800299 2.7464898899197578 2.8138477504253387 2.5140541642904282 4.3454570323228836
leaf_count=34 29 18 33 25 34 16 20 34 15 20 18 20 38
internal_value=-0.00103696 0.0150771 -0.00289437 -0.0291001 0.0355798 -0.0479325 -0.0488092 -0.0592976 0.0555915 -0.0591167 -0.0629934 0.060393 0.0586317
internal_weight=53.6985 40.1541 27.8156 16.5458 11.2698 12.3325 13.5444 8.49096 12.3385 9.18984 6.44335 9.67378 6.85951
internal_count=354 266 175 108 67 83 88 54 91 67 47 76 58
is_linear=0
shrinkage=0.05


Tree=30
num_leaves=15
num_cat=0
split_feature=8 18 11 5 14 14 3 14 16 5 11 10 4 3
split_gain=16.321 11.0595 13.2014 7.23501 4.31547 1.9836 1.79196 0.272956 0.431799 0.122133 0.0633661 0.03969 0.0346229 0.000132034
threshold=20.991084171664721 0.10014007590638964 0.033381086576174314 0.19049306548415088 0.78921125287118798 0.7686553482252817 413.79444444444454 0.75201459693088479 0.81823212547337509 0.097630538757998361 0.054847611704515381 0.028972409045968369 0.14591796619854006 418.72023809523813
decision_type=2 2 2 2 2 2 2 2 2 2 2 2 2 2
left_child=1 2 4 10 9 -4 -3 8 -8 13 12 -9 -2 -1
right_child=3 6 5 -5 -6 -7 7 11 -10 -11 -12 -13 -14 -15
leaf_value=-0.05770103879811931 -0.067050487614195062 0.014655550033631762 0.014696155009939297 0.012575841615406586 -0.0045107707229950214 0.065244275360707302 0.059673887116985617 0.067523687420493417 0.032934865756111834 -0.070936235463079297 -0.072825030618459963 0.059794366961095614 -0.060408691667617788 -0.057190361053620159
leaf_weight=2.7995248660445231 4.4551173299550992 3.2548653483390835 3.3413386419415465 3.9626071900129309 5.7424545809626579 4.6303268596529961 3.6287120729684812 2.8593285456299782 2.5857039391994476 2.5113711208105087 2.8395634591579437 3.9626231119036674 3.5065165236592293 2.310148574411869
leaf_count=25 30 22 18 18 31 32 30 18 17 17 15 32 27 22
internal_value=-0.000660062 0.0168211 -0.00686644 -0.0452119 -0.0372435 0.0440569 0.0478427 0.0561287 0.0485483 -0.0619076 -0.0664124 0.063034 -0.0641253 -0.0574702
internal_weight=52.3902 37.6264 21.3352 14.7638 13.3635 7.97167 16.2912 13.0364 6.21442 7.62104 10.8012 6.82195 7.96163 5.10967
internal_count=354 264 145 90 95 50 119 97 47 64 72 50 57 47
is_linear=0
shrinkage=0.05


Tree=31
num_leaves=16
num_cat=0
split_feature=8 18 11 5 14 5 12 12 18 6 14 10 10 1 0
split_gain=15.1526 10.4585 9.94351 6.87441 3.86524 6.71048 0.766283 0.343796 0.501345 0.119069 0.0547724 0.0640128 0.02725 0.00589255 0.00411904
threshold=20.991084171664721 0.063403655864635491 0.033381086576174314 0.19049306548415088 0.75201459693088479 0.150778303750669 0.032795698924731158 0.061824384485879291 0.12446544560614047 0.41059352304697827 0.7332112483001173 0.066440927367023353 0.063087097093307662 0.44083872847143973 4.452272727272728
decision_type=2 2 2 2 2 2 2 2 2 2 2 2 2 2 2
left_child=1 2 6 10 5 -3 13 12 -9 -7 11 14 -6 -1 -2
right_child=3 4 -4 -5 7 9 -8 8 -10 -11 -12 -13 -14 -15 -16
leaf_value=-0.058666011136540235 -0.061334894202843361 -0.024188171434249135 0.03948070898783694 0.011979611322165143 0.067652219682850803 0.046154734604220378 -0.027403201049881684 0.03269570658331223 0.061539100792848134 0.060673967623261028 -0.071473624916418538 -0.069515845698882459 0.060972122753538208 -0.06177755002451462 -0.05845344622555048
leaf_weight=3.3902845904231054 2.524225249886511 5.4578315839171427 4.7442458346486083 3.952111452817916 3.23189429938793 2.7730054780840874 2.5367870330810547 2.8995208069682121 3.1359419971704483 2.87715083360672 2.7823643907904625 2.6739125996828079 2.8934290558099747 2.760493703186512 2.4383253827691078
leaf_count=30 18 34 29 18 21 22 18 19 25 23 17 15 22 21 22
internal_value=-0.00064623 0.0163961 -0.0187347 -0.0441691 0.0366753 0.015353 -0.0505259 0.0561517 0.0476823 0.0535482 -0.0654677 -0.0632794 0.0644967 -0.0600625 -0.0599191
internal_weight=51.0715 36.7006 13.4318 14.3709 23.2688 11.108 8.68757 12.1608 6.03546 5.65016 10.4188 7.63646 6.12532 6.15078 4.96255
internal_count=354 264 98 90 166 79 69 87 44 45 72 55 43 51 40
is_linear=0
shrinkage=0.05


Tree=32
num_leaves=16
num_cat=0
split_feature=3 18 11 10 14 1 7 18 3 5 14 3 10 7 5
split_gain=14.2855 7.4368 9.77553 4.82784 4.09879 3.65241 2.31246 0.79807 0.123834 0.0989713 0.092408 0.0839331 0.0405799 0.00327274 0.00128412
threshold=372.37719109226811 0.11930641821946171 0.033381086576174314 0.0015656309474793471 0.78921125287118798 0.90929091437887977 19.500000000000004 0.14941767775966094 467.07500000000005 0.089600934348650615 0.74512051312134076 433.4224488870704 0.019432270487360185 20.500000000000004 0.19049306548415088
decision_type=2 2 2 2 2 2 2 2 2 2 2 2 2 2 2
left_child=6 2 4 -4 10 11 -1 9 -5 13 -2 -3 -13 -8 -14
right_child=1 5 3 8 -6 -7 7 -9 -10 -11 -12 12 14 -15 -16
leaf_value=-0.0050701805432898954 -0.066869310883284849 0.04973617861755384 -0.01162433976975138 0.053331832480189134 -9.0051196583619655e-06 -0.0092440623139736933 -0.057829926955570411 -0.033844249618336091 0.067213446924763137 -0.07108794530938424 -0.054683585205980711 0.064728333994954618 0.058169402826552821 -0.060469951965187355 0.056623788391418933
leaf_weight=2.9802319929003707 2.5155867040157336 2.9181414842605582 3.8005417287349683 3.8888456076383591 5.2143442705273628 2.5509122908115378 2.1570009812712652 3.1827256232500076 2.7375052347779274 2.8290210366249084 4.0775519013404846 2.6295785754919034 2.1796240359544754 2.5756851434707642 3.5045045167207718
leaf_count=19 19 22 19 29 28 15 20 18 17 18 36 17 19 23 35
internal_value=-0.000632405 0.0159083 -0.00197982 0.0333002 -0.0331347 0.0447654 -0.0440395 -0.0548486 0.0590667 -0.0636893 -0.059333 0.0570317 0.0595924 -0.0592667 0.0572165
internal_weight=49.7418 36.0171 22.2344 10.4269 11.8075 13.7828 13.7247 10.7444 6.62635 7.56171 6.59314 11.2318 8.31371 4.73269 5.68413
internal_count=354 256 148 65 83 108 98 79 46 61 55 93 71 43 54
is_linear=0
shrinkage=0.05


Tree=33
num_leaves=16
num_cat=0
split_feature=8 11 5 10 5 1 9 13 4 14 14 10 5 0 3
split_gain=13.475 9.25324 10.984 6.48618 6.31469 2.11952 1.31207 0.67817 0.302933 0.0508474 0.0489196 0.0442395 0.0419786 0.00308139 0.000392033
threshold=20.991084171664721 1.0000000180025095e-35 0.13253326857394956 0.12426643395439212 0.19049306548415088 0.68151343653897367 15.144520069405131 11.500000000000002 0.038592429913646455 0.78921125287118798 0.7332112483001173 0.066440927367023353 0.10030484484736502 4.452272727272728 451.80626908300013
decision_type=2 2 2 2 2 2 2 2 2 2 2 2 2 2 2
left_child=1 2 3 7 10 8 -4 -1 12 14 11 13 -3 -2 -9
right_child=4 5 6 -5 -6 -7 -8 9 -10 -11 -12 -13 -14 -15 -16
leaf_value=-0.031078252395716727 -0.060345405771858755 0.066229408805321383 0.023385747157567263 0.035238833493004391 0.011126588219907564 0.014017864299842565 0.065124106266142276 -0.057434978666599107 0.043617593864763653 -0.066255032166793335 -0.069952204108759616 -0.067324800781764574 0.058946235159570752 -0.057760925380173557 -0.058407124046008042
leaf_weight=2.4505371898412722 2.3596519827842695 3.7775576338171941 4.6119372695684424 2.5789965242147437 3.8975120782852164 3.8151604086160651 3.1819889098405838 2.3887143507599831 2.9370133280754089 3.1454266309738159 2.6440268307924271 2.5148840025067329 4.1541477367281914 2.2558548375964165 1.8327226415276525
leaf_count=21 18 25 34 15 18 28 22 24 21 18 17 15 37 22 19
internal_value=-0.000613752 0.01588 -0.0060841 -0.0353262 -0.0426859 0.0460806 0.0404261 -0.0538634 0.0573354 -0.0614427 -0.0641434 -0.0619894 0.0624149 -0.0590822 -0.057857
internal_weight=48.5461 34.8742 20.1903 12.3964 13.6719 14.6839 7.79393 9.8174 10.8687 7.36686 9.77442 7.13039 7.93171 4.61551 4.22144
internal_count=354 264 153 97 90 111 56 82 83 61 72 55 62 40 43
is_linear=0
shrinkage=0.05


Tree=34
num_leaves=15
num_cat=0
split_feature=14 5 10 11 18 11 18 6 16 10 14 18 13 18
split_gain=12.9705 12.1974 5.06745 3.73555 6.778 2.94282 2.73706 0.378195 0.17127 0.0842322 0.0657707 0.0209445 0.000343561 3.44596e-05
threshold=0.7620063794093167 0.1469296282931746 0.066440927367023353 0.017503018370363506 0.073443575679455239 0.066649320766822742 0.14758158508158503 0.44240878276932832 0.78944490627162978 0.050564984770939375 0.8061663722601673 0.13214285714285715 14.98835942706339 0.037499999999999957
decision_type=2 2 2 2 2 2 2 2 2 2 2 2 2 2
left_child=1 5 6 4 -2 9 -3 10 -4 11 -5 12 -1 -14
right_child=3 2 8 7 -6 -7 -8 -9 -10 -11 -12 -13 13 -15
leaf_value=-0.055858777912477134 -0.039168623021841535 -0.044652810679111733 0.067485359359126057 0.057186147063331062 0.047167837545488145 -0.013307552904920736 0.019646448263337755 0.040949061104067083 0.048573708733747417 -0.065341555160067594 0.067691464116112016 -0.061039387360293407 -0.054938731589146139 -0.055236371704231728
leaf_weight=2.3481983616948181 3.9796402230858821 3.0196304693818075 2.3816488981246948 2.8572720512747747 5.3018445894122124 4.6184335425496092 3.6624271720647812 3.0189845263957977 2.4072297886013985 4.4815658107399932 3.113260380923748 2.2158881798386574 1.8750771656632426 2.0201219320297241
leaf_count=26 22 16 17 29 35 26 24 23 23 31 19 16 23 24
internal_value=-0.000604217 -0.0213757 0.0187233 0.032399 0.0101492 -0.0475711 -0.00941047 0.0553714 0.057979 -0.0597994 0.062664 -0.0568633 -0.0553811 -0.0550931
internal_weight=47.3012 29.0302 11.4709 18.271 9.28148 17.5593 6.68206 8.98952 4.78888 12.9409 5.97053 8.45929 6.2434 3.8952
internal_count=354 226 80 128 57 146 40 71 40 120 48 89 73 47
is_linear=0
shrinkage=0.05


Tree=35
num_leaves=16
num_cat=0
split_feature=11 5 7 7 14 3 3 1 3 5 5 1 14 1 3
split_gain=11.9418 8.0765 5.3147 5.19535 4.79942 2.49515 0.804398 0.62674 0.128129 0.025816 0.0240618 0.0156451 0.0104681 0.00145671 0.000414061
threshold=1.0000000180025095e-35 0.11359507225036784 20.500000000000004 20.500000000000004 0.76549275352577928 460.07500000000005 471.61826611664964 0.69274851661797843 402.16202349057158 0.10030484484736502 0.093073593073593072 1.0631600960630989 0.75201459693088479 0.78763548187368704 418.72023809523813
decision_type=2 2 2 2 2 2 2 2 2 2 2 2 2 2 2
left_child=1 4 7 6 10 -4 -3 8 -2 -10 11 13 -11 14 -1
right_child=2 3 5 -5 -6 -7 -8 -9 9 12 -12 -13 -14 -15 -16
leaf_value=-0.055905352462079644 0.04834379216150457 0.025491235850299023 -0.034648566548446454 -0.028252656054995232 0.00095985840648126061 0.024490266294039179 0.060785890058901532 0.029700129199286964 0.064570397390098733 0.060742715375698614 -0.063270777878514692 -0.060567695646781938 0.055917144349995701 -0.057222580506974277 -0.054993866569393417
leaf_weight=3.0609785467386299 2.7300627678632754 3.1246545836329442 3.1737133786082259 4.0950268283486366 4.9046470448374739 4.0719184949994087 3.3398419320583344 2.4954565688967696 3.0126286447048187 2.5361056700348854 1.966798037290572 2.5069989040493965 2.0182076543569565 1.6980269327759741 2.1012794300913811
leaf_count=34 18 19 21 23 31 24 29 20 21 21 18 19 23 17 26
internal_value=0.00360469 -0.018227 0.0328017 0.0158124 -0.0403618 -0.00141358 0.043726 0.0521812 0.0576294 0.0609796 -0.0582431 -0.0571875 0.0586043 -0.0559522 -0.0555343
internal_weight=46.8363 26.7983 20.0381 10.5595 16.2387 7.24563 6.4645 12.7925 10.297 7.56694 11.3341 9.36728 4.55431 6.86028 5.16226
internal_count=364 216 148 71 145 45 48 103 83 65 114 96 44 77 60
is_linear=0
shrinkage=0.05


Tree=36
num_leaves=17
num_cat=0
split_feature=11 18 3 8 15 10 3 1 3 15 6 0 14 3 13 4
split_gain=11.0455 8.63444 7.91777 5.04014 6.85831 4.90397 1.40594 1.29447 0.257321 0.189559 0.138045 0.257294 0.0434649 0.0357732 0.0154421 0.000252356
threshold=1.0000000180025095e-35 0.14776410353440297 346.75000000000006 20.252386310829696 0.19049306548415088 0.071168599030605642 522.66768983029749 0.69274851661797843 456.74702380952385 0.1469296282931746 0.41339412893122224 4.948095022151878 0.75972296633529512 471.61826611664964 15.009037681807763 0.068858768005295418
decision_type=2 2 2 2 2 2 2 2 2 2 2 2 2 2 2 2
left_child=1 5 -3 7 -5 6 8 10 9 12 14 -12 15 -4 -2 -1
right_child=3 2 13 4 -6 -7 -8 -9 -10 -11 11 -13 -14 -15 -16 -17
leaf_value=-0.055360254210517969 0.065545818487969032 -0.040309517102931743 0.065958530296813048 -0.059321933098759952 0.043454071905113335 0.011650452462104355 -0.012866039487814075 0.017256889844260055 -0.044966240494920887 -0.074656549144462375 0.040001202704410578 0.062209253642457045 -0.063711012398279684 0.057645352168924073 0.060170342839432178 -0.054609675825788642
leaf_weight=2.7298032268881851 2.8628427460789698 2.9661142006516439 2.7667205929756165 3.0149731263518325 3.5163412764668465 4.0046503320336333 2.0506917759776107 2.4770509824156752 2.9821827411651602 2.2037051990628242 2.4923764020204544 2.7358102723956108 2.1100994870066643 2.4312826991081238 2.5050862804055214 1.8988060280680654
leaf_count=32 19 19 19 20 23 28 17 19 25 12 22 22 15 24 23 25
internal_value=0.00350701 -0.0177677 0.0248745 0.0318785 -0.0039892 -0.0371302 -0.0511084 0.0497979 -0.057685 -0.0619266 0.057405 0.0516223 -0.0577636 0.0620702 0.0630372 -0.0550523
internal_weight=45.7485 26.1441 8.16412 19.6045 6.53131 17.9799 13.9753 13.0732 11.9246 8.94241 10.5961 5.22819 6.73871 5.198 5.36793 4.62861
internal_count=364 216 62 148 43 154 126 105 109 84 86 44 72 43 42 57
is_linear=0
shrinkage=0.05


Tree=37
num_leaves=14
num_cat=0
split_feature=10 14 11 18 18 14 7 3 18 0 3 5 14
split_gain=10.4494 7.46314 4.70781 4.20991 3.97566 4.42225 2.83779 0.15839 0.149873 0.109248 0.1573 0.0572273 0.0427168
threshold=1.0000000180025095e-35 0.78921125287118798 0.063087097093307662 0.13749999999999996 0.092994573408038614 0.77403036973924422 20.500000000000004 491.11219512195129 0.14758158508158503 4.8070310841278374 431.49775093981276 0.095396227156063482 0.7620063794093167
decision_type=2 2 2 2 2 2 2 2 2 2 2 2 2
left_child=1 3 4 9 5 -2 7 -6 12 11 -11 -1 -4
right_child=2 -3 8 -5 6 -7 -8 -9 -10 10 -12 -13 -14
leaf_value=-0.056049654112845494 -0.063655823532564146 0.029036657065597184 0.065169002330497799 0.0010697372018282979 0.060104647076713084 0.016461082299172591 -0.0046543726913459435 0.04268325967087009 0.046827747962286337 -0.059065398620058863 -0.040552560279895629 -0.065770483515612294 0.056308392403989785
leaf_weight=2.6873367168009299 3.0457534492015865 5.1618132442235938 3.021444305777548 4.347038321197032 3.5348855629563314 3.9641926884651184 3.3213301301002502 2.0679153874516487 2.7188888564705849 2.7796224877238274 1.9540448337793348 3.4677673131227493 2.4739974737167358
leaf_count=32 24 29 18 28 33 26 18 22 30 30 23 24 27
internal_value=0.00342534 -0.0229238 0.0256818 -0.0405277 0.0098308 -0.0183489 0.0319661 0.0536747 0.0564295 -0.0571343 -0.0514233 -0.0615263 0.06118
internal_weight=44.546 20.3976 24.1484 15.2358 15.9341 7.00995 8.92413 5.6028 8.21433 10.8888 4.73367 6.1551 5.49544
internal_count=364 166 198 137 123 50 73 55 75 109 53 56 45
is_linear=0
shrinkage=0.05


Tree=38
num_leaves=16
num_cat=0
split_feature=11 16 7 7 14 15 3 1 3 10 10 16 0 13 0
split_gain=9.85219 7.16777 4.61397 4.40089 4.31405 2.0758 0.748109 0.592862 0.155046 0.0380831 0.022813 0.0120799 0.0087879 0.000352346 7.75205e-06
threshold=1.0000000180025095e-35 0.88640492774963231 20.500000000000004 20.500000000000004 0.76549275352577928 0.18393258901539417 471.61826611664964 0.69274851661797843 402.16202349057158 0.059539213002834969 0.035096436302377569 0.8996951551526351 4.4194139194139206 14.98835942706339 4.8996911482715522
decision_type=2 2 2 2 2 2 2 2 2 2 2 2 2 2 2
left_child=1 3 7 6 9 -4 -1 8 -2 12 -10 -12 -3 -14 -15
right_child=2 4 5 -5 -6 -7 -8 -9 10 -11 11 -13 13 14 -16
leaf_value=0.024713520931865227 0.045120303191593027 -0.058438401941272755 -0.026554507230797292 -0.025393825413089901 0.00015032143272088159 0.028710748304831751 0.059999861211247944 0.027580889040236631 0.063489306538481893 -0.062005725373295809 0.0553483139995853 0.060734446651246936 -0.05481474354431326 -0.053910658553836623 -0.054075091852917548
leaf_weight=2.9614372700452822 2.5433959960937518 1.7720817662775497 3.7687785029411307 3.9379665926098824 4.7757335230708113 3.0939992442727089 3.0481142029166222 2.3549470156431189 2.4182354286313057 3.1495096907019615 2.6809285879135132 1.7017901614308355 2.4068083912134171 1.4091666936874392 1.4587505757808683
leaf_count=19 18 16 26 23 31 19 29 20 18 25 33 14 31 21 21
internal_value=0.00333254 -0.0172087 0.0309091 0.0156897 -0.0390666 -0.00163884 0.0426112 0.0500017 0.0556521 -0.057435 0.0595908 0.0574397 -0.0553921 -0.0543687 -0.0539943
internal_weight=43.4816 24.9196 18.5621 9.94752 14.9721 6.86278 6.00955 11.6993 9.34435 10.1963 6.80095 4.38272 7.04681 5.27473 2.86792
internal_count=364 216 148 71 145 45 48 103 83 114 65 47 89 73 42
is_linear=0
shrinkage=0.05


Tree=39
num_leaves=13
num_cat=0
split_feature=10 14 11 18 18 14 5 18 0 3 5 14
split_gain=9.5695 6.57055 4.23745 3.98727 3.72239 4.02841 0.806129 0.144042 0.105717 0.162108 0.0511066 0.0320942
threshold=1.0000000180025095e-35 0.78921125287118798 0.063087097093307662 0.13749999999999996 0.14941767775966094 0.76549275352577928 0.19920383998543154 0.14758158508158503 4.8070310841278374 431.49775093981276 0.095396227156063482 0.7620063794093167
decision_type=2 2 2 2 2 2 2 2 2 2 2 2
left_child=1 3 4 8 5 -2 -6 11 10 -10 -1 -4
right_child=2 -3 7 -5 6 -7 -8 -9 9 -11 -12 -13
leaf_value=-0.055599088389989372 -0.041748827841278154 0.026591697361053643 0.063762791745099814 0.0011512256625948044 0.021530531104358316 0.021174485671598228 0.06199072916152884 0.045656679320501256 -0.058814407779774085 -0.039367723476074666 -0.065086868071901435 0.055816727438942795
leaf_weight=2.4792785160243529 4.6619683578610438 5.0440815016627303 2.8387753888964644 4.226371891796588 2.1217989400029174 5.5978522077202797 2.9326176196336746 2.5429516062140465 2.5887240432202816 1.8286679089069364 3.3199651762843132 2.3006049767136574
leaf_count=32 36 29 18 28 19 38 30 30 30 23 24 27
internal_value=0.00324175 -0.022537 0.0250864 -0.0396947 0.00988482 -0.00741729 0.0450059 0.0553898 -0.0565917 -0.0507641 -0.0610307 0.0602058
internal_weight=42.4837 19.4871 22.9966 14.443 15.3142 10.2598 5.05442 7.68233 10.2166 4.41739 5.79924 5.13938
internal_count=364 166 198 137 123 74 49 75 109 53 56 45
is_linear=0
shrinkage=0.05


Tree=40
num_leaves=15
num_cat=0
split_feature=10 7 5 18 7 18 11 0 6 3 0 3 12 9
split_gain=9.6974 5.31917 3.50473 3.49009 3.4814 4.84166 3.16052 0.510736 0.168533 0.110011 0.102384 0.148252 0.0232943 0.0208754
threshold=1.0000000180025095e-35 20.500000000000004 0.19049306548415088 0.049999999999999954 20.500000000000004 0.12446544560614047 0.017503018370363506 4.9466281859905568 0.43664361961397558 478.50115417625352 4.7661437511685234 485.49028992228938 0.061824384485879291 15.983141648910662
decision_type=2 2 2 2 2 2 2 2 2 2 2 2 2 2
left_child=4 3 -3 -2 5 6 9 10 -6 12 -5 -12 -1 -10
right_child=1 2 -4 7 8 -7 -8 -9 13 -11 11 -13 -14 -15
leaf_value=-0.054981542270068455 -0.0029770663887870121 -0.042142513384446918 0.025823609182920162 0.061499715302217255 -0.045406148721590663 0.040098590700011275 0.011420760150867931 0.031904583414073796 -0.059607973868805009 -0.043380409683366643 0.058112169721351109 0.03964078993126021 -0.062805975844143977 -0.066331091863361877
leaf_weight=2.1221538297832034 4.185443375259644 4.5868290141224852 3.2341256439685822 4.3954057246446592 2.0128247104585162 3.2100937515497199 2.7848949581384659 2.8979569599032393 2.4870845265686512 1.7545127458870409 2.7420243211090565 1.798950958997011 1.7239776551723478 2.1550820246338844
leaf_count=29 34 31 19 38 17 21 15 33 28 17 29 22 15 16
internal_value=-0.00123416 0.0197639 -0.0140371 0.0362658 -0.0286639 -0.0121202 -0.0321102 0.0501449 -0.0574897 -0.0537558 0.0560599 0.0507946 -0.0584887 -0.0627291
internal_weight=42.0914 23.8407 7.82095 16.0198 18.2506 11.5956 8.38554 11.8343 6.65499 5.60064 8.93638 4.54098 3.84613 4.64217
internal_count=364 206 50 156 158 97 76 122 61 61 89 51 44 44
is_linear=0
shrinkage=0.05


Tree=41
num_leaves=17
num_cat=0
split_feature=14 10 11 18 16 0 3 14 18 3 6 16 14 16 11 18
split_gain=9.51006 6.48451 6.31678 6.60244 5.04296 2.48023 2.33752 0.711731 0.6309 0.296389 0.143965 0.110433 0.0746324 0.044096 0.0416997 0.0163544
threshold=0.71580145865294187 0.066700206307093154 0.039306141385336023 0.13749999999999996 0.8076597024342993 4.8100404440578588 521.19494163032709 0.7620063794093167 0.15305802908160313 456.74702380952385 0.37745297027619906 0.92512704413679625 0.79881625745170626 0.92512704413679625 0.050625631687506105 0.071428571428571466
decision_type=2 2 2 2 2 2 2 2 2 2 2 2 2 2 2 2
left_child=4 2 3 6 -1 -4 9 8 -3 12 -6 -9 -2 -7 15 -12
right_child=1 7 5 -5 10 13 -8 11 -10 -11 14 -13 -14 -15 -16 -17
leaf_value=0.024497328886780929 -0.058953037825935743 0.019314404159732013 0.0025478493128760805 0.039375572590312546 -0.045159850297031019 0.052440920487230695 0.0012084308549500031 0.057362924259892728 0.05849398161941554 -0.044261471232496193 -0.05417472119573731 0.073347908938980771 -0.071573224766566121 0.062262739148259721 -0.065804595446395414 -0.06002084981870448
leaf_weight=2.4243024960160247 2.3644416034221702 2.4328458011150342 3.738413639366625 3.1528022699058047 2.1117990575730783 2.2395834848284721 2.1906838901340961 2.3555271327495575 1.7787359133362768 2.6411332860589027 2.1202500276267529 1.9960796758532522 2.3218741863965988 2.3333790004253387 2.1725397408008575 2.7451929710805416
leaf_count=16 28 19 26 29 20 22 17 25 21 23 31 16 13 18 14 26
internal_value=-0.00120246 0.0138475 -0.00111673 -0.0233357 -0.0396209 0.0327567 -0.0441083 0.0505142 0.0358617 -0.0576566 -0.0566095 0.0646952 -0.0652058 0.0574526 -0.060045 -0.0574732
internal_weight=41.1196 29.5455 20.9823 12.6709 11.5741 8.31138 9.51813 8.56319 4.21158 7.32745 9.14978 4.35161 4.68632 4.57296 7.03798 4.86544
internal_count=364 257 176 110 107 66 81 81 40 64 91 41 41 40 71 57
is_linear=0
shrinkage=0.05


Tree=42
num_leaves=18
num_cat=0
split_feature=14 10 11 18 5 0 3 14 18 3 18 16 14 16 10 11 18
split_gain=8.86158 6.05512 5.83551 6.11394 4.75776 2.37467 2.23469 0.708604 0.629865 0.300643 0.14505 0.0969473 0.0629142 0.0453523 0.0343174 0.0210636 0.000926852
threshold=0.71580145865294187 0.066700206307093154 0.039306141385336023 0.13749999999999996 0.19920383998543154 4.8100404440578588 521.19494163032709 0.7620063794093167 0.15305802908160313 456.74702380952385 0.15175777103195909 0.92512704413679625 0.79881625745170626 0.92512704413679625 0.050564984770939375 0.066649320766822742 0.067709159283792023
decision_type=2 2 2 2 2 2 2 2 2 2 2 2 2 2 2 2 2
left_child=4 2 3 6 10 -4 9 8 -3 12 14 -9 -2 -7 15 16 -1
right_child=1 7 5 -5 -6 13 -8 11 -10 -11 -12 -13 -14 -15 -16 -17 -18
leaf_value=-0.053527649374105424 -0.058530091598969596 0.018425673911011367 0.0024218533165770314 0.038266038303039374 0.023499174077878316 0.05143224130148686 0.0011478499805818272 0.056972451613324829 0.058106180155379231 -0.043019240051765884 -0.044004909417955283 0.072244188986534646 -0.070339403211384044 0.06156882429629186 -0.064320891178424516 -0.061480087251299831 -0.055313050164579096
leaf_weight=1.6333146505057796 2.2649678140878731 2.4229405745863897 3.7363123856484872 3.0837869457900515 2.4015075080096713 2.1710827201604843 2.1909818910062313 2.2556144408881664 1.7029928117990492 2.5830274410545826 1.9882266148924825 1.9270019493997095 2.2463874071836472 2.2439588755369186 2.3022530376911163 1.5793185234069822 1.3098624907433984
leaf_count=27 28 19 26 29 16 22 17 25 21 23 16 16 13 18 18 12 18
internal_value=-0.00117635 0.0134938 -0.00108714 -0.0227323 -0.0388888 0.031758 -0.0429906 0.0495058 0.0348039 -0.056622 -0.0558893 0.0640084 -0.0644104 0.0565842 -0.0593516 -0.0568219 -0.0543222
internal_weight=40.0435 28.8291 20.5205 12.3692 11.2145 8.15135 9.28536 8.30855 4.12593 7.09438 8.81298 4.18262 4.51136 4.41504 6.82475 4.5225 2.94318
internal_count=364 257 176 110 107 66 81 81 40 64 91 41 41 40 75 57 45
is_linear=0
shrinkage=0.05


Tree=43
num_leaves=17
num_cat=0
split_feature=14 10 11 18 5 14 2 14 18 3 6 6 18 16 11 18
split_gain=8.2567 5.6537 5.38992 5.7011 4.49075 3.01755 2.28663 0.705841 0.627761 0.559871 0.292524 0.164189 0.138334 0.084994 0.0295709 0.012556
threshold=0.71580145865294187 0.066700206307093154 0.039306141385336023 0.14776410353440297 0.19920383998543154 0.84232584279813527 0.047594351412381143 0.7620063794093167 0.15305802908160313 509.70292863216372 0.4198304268303506 0.37745297027619906 0.069526842442078282 0.92512704413679625 0.050625631687506105 0.092105263157894718
decision_type=2 2 2 2 2 2 2 2 2 2 2 2 2 2 2 2
left_child=4 2 3 5 11 9 10 8 -3 12 -4 -1 -2 -9 15 -13
right_child=1 7 6 -5 -6 -7 -8 13 -10 -11 -12 14 -14 -15 -16 -17
leaf_value=-0.042642816116567096 -0.056781713775390479 0.017573845849800401 0.05974347712896827 0.046943498348358752 0.022535446972712314 0.009297916272811832 -0.0067674842679220975 0.056604383985235332 0.0577362866059868 -0.031690778416899219 0.035930777642806271 -0.05407497767715104 -0.073049076932554774 0.071187832382542129 -0.064056285926805887 -0.059376914301594787
leaf_weight=1.9952231086790542 3.1941340267658287 2.4136097282171232 3.0950824022293082 2.3942523486912242 2.3795689754188052 2.4074340015649796 2.6903012543916702 2.1592052429914474 1.6300528459250925 1.8688789904117582 2.2109743766486645 2.195692416280508 2.2118491604924202 1.859531234949827 2.0240815281867981 2.2722588032484055
leaf_count=20 38 19 31 25 16 14 16 25 21 18 19 34 15 16 14 23
internal_value=-0.00115073 0.0131466 -0.00105829 -0.0221412 -0.0381679 -0.0392246 0.0307823 0.0485124 0.0337638 -0.0552819 0.049821 -0.0551873 -0.0634375 0.0633524 -0.0590427 -0.0567714
internal_weight=39.0021 28.1353 20.0729 12.0765 10.8668 9.6823 7.99636 8.0624 4.04366 7.27486 5.30606 8.48726 5.40598 4.01874 6.49203 4.46795
internal_count=364 257 176 110 107 85 66 81 40 71 50 91 53 41 71 57
is_linear=0
shrinkage=0.05


Tree=44
num_leaves=17
num_cat=0
split_feature=7 5 14 5 10 11 1 10 10 14 18 10 3 9 17 16
split_gain=7.9096 7.81215 5.51101 3.86009 3.45642 1.20151 0.920004 0.860308 0.414954 0.14121 0.0392735 0.0240427 0.00333864 0.00104806 0.000765279 0.000489748
threshold=20.500000000000004 0.11359507225036784 0.75037609496656243 0.19049306548415088 0.067879140451079581 0.066649320766822742 0.30695484693276875 0.059539213002834969 1.0000000180025095e-35 0.73033997705354081 0.11770634073796052 0.066440927367023353 350.3019480519481 11.500000000000002 0.94623883433187561 0.82152606744012757
decision_type=2 2 2 2 2 2 2 2 2 2 2 2 2 2 2 2
left_child=1 2 5 7 6 11 -4 9 -3 12 -10 13 -2 -1 -12 -16
right_child=3 8 4 -5 -6 -7 -8 -9 10 -11 14 -13 -14 -15 15 -17
leaf_value=-0.055015601399369111 -0.054797883314299661 0.035109214955129552 0.018831700082340044 0.0085463042063008525 0.066235482279991764 -0.010159230170477809 -0.02188701982841755 -0.030020308500289163 0.062782067444701592 -0.072444690391553268 0.055070852967470753 -0.061602558607271964 -0.057783723630441514 -0.053101531131299333 0.053207205870118304 0.054444925829421113
leaf_weight=1.2470460757613209 1.9774756617844089 3.4171505197882635 2.58827021345496 3.9764402881264678 2.6643543466925621 2.0208621919155121 2.9894118681550026 3.2864311151206493 1.8231597803533075 2.08256870880723 1.6121426858007906 1.5613560751080511 1.7779906094074247 1.6767942868173122 1.8595720864832403 1.4016233831644056
leaf_count=18 29 22 21 24 25 12 22 26 15 14 20 14 18 31 33 20
internal_value=-0.00112612 0.0154413 -0.00776875 -0.0325662 0.0193868 -0.0421701 -0.00299189 -0.0504831 0.049287 -0.0620023 0.0565217 -0.056593 -0.0562115 -0.0539179 0.0541797 0.0537392
internal_weight=37.9626 24.8617 14.7481 13.1009 8.24204 6.50606 5.57768 9.12447 10.1136 5.83803 6.6965 4.4852 3.75547 2.92384 4.87334 3.2612
internal_count=364 253 143 111 68 75 43 87 110 61 88 63 47 49 73 53
is_linear=0
shrinkage=0.05


Tree=45
num_leaves=16
num_cat=0
split_feature=3 18 11 10 8 16 14 1 4 12 13 0 10 3 12
split_gain=7.55117 6.51666 5.25802 3.76697 2.30146 1.36539 0.879268 0.841418 0.633838 0.251905 0.0315714 0.00920344 0.00169106 0.00131082 0.000673389
threshold=372.37719109226811 0.14309051255747487 0.039306141385336023 0.094116000614129017 20.462978267511655 0.86192284662470475 0.75037609496656243 0.90929091437887977 0.056769978060731155 0.063609459407967514 15.991711570447423 4.8010553570862502 0.046824138137835203 485.49028992228938 0.034254803115143916
decision_type=2 2 2 2 2 2 2 2 2 2 2 2 2 2 2
left_child=8 2 3 5 6 -2 -4 11 -1 -10 13 -3 -13 -7 -14
right_child=1 7 4 -5 -6 10 -8 -9 9 -11 -12 12 14 -15 -16
leaf_value=-0.027461053028729268 -0.016911352403575056 0.058843813082755728 0.018362736718678222 0.020700153861157113 -0.014557538964854065 -0.053368037174849371 0.058392496459420462 0.016503507802029357 -0.06270146614612368 -0.040339023723976686 -0.061893901531521689 0.056075934247388264 0.05315173781126286 -0.055662160294805321 0.054786315954957955
leaf_weight=3.3969214297831041 2.9379328414797836 2.0464100167155257 2.3455131202936155 2.9390154853463164 2.6699145138263702 1.3095622397959235 3.3045228943228722 1.7238766103982923 3.6060199066996574 1.9351303577423093 3.335024781525135 1.4537428282201292 1.3145380206406119 1.1870783083140848 1.2100966237485407
leaf_count=36 18 21 16 25 16 24 37 13 39 20 24 19 24 18 17
internal_value=-0.00449289 0.00836977 -0.00669375 -0.0282893 0.0236975 -0.0447074 0.0417748 0.0473056 -0.0444668 -0.0548919 -0.0587108 0.056119 0.0547175 -0.0544588 0.0539352
internal_weight=36.7153 27.7772 20.0286 11.7086 8.31995 8.7696 5.65004 7.74866 8.93807 5.54115 5.83167 6.02479 3.97838 2.49664 2.52463
internal_count=367 272 178 109 69 84 53 94 95 59 66 81 60 42 41
is_linear=0
shrinkage=0.05


Tree=46
num_leaves=16
num_cat=0
split_feature=3 18 11 10 8 16 2 14 4 14 13 17 10 3 11
split_gain=7.00496 6.11583 4.85512 3.5104 2.14584 1.36972 1.07256 0.878119 0.632952 0.226378 0.0265218 0.019115 0.00258736 0.00114785 0.000499875
threshold=372.37719109226811 0.14309051255747487 0.039306141385336023 0.094116000614129017 20.462978267511655 0.86192284662470475 0.047874594462959587 0.75037609496656243 0.056769978060731155 0.57208237986270027 15.991711570447423 0.94065264909621427 0.035096436302377569 485.49028992228938 0.09761620024213423
decision_type=2 2 2 2 2 2 2 2 2 2 2 2 2 2 2
left_child=8 2 3 5 7 -2 11 -4 -1 -10 13 -3 -13 -7 -14
right_child=1 6 4 -5 -6 10 -8 -9 9 -11 -12 12 14 -15 -16
leaf_value=-0.026379909376531264 -0.016067606260698416 0.060864317757995348 0.017534824745199584 0.019741293993383646 -0.013841701529495778 -0.053195867213119488 0.0098605387438985247 0.057957498209122306 -0.039835477829023615 -0.061502399914151351 -0.061204261247949678 0.056242972926368699 0.053076968632012472 -0.055392621790728326 0.0544614085545903
leaf_weight=3.3602887690067273 2.9376080334186607 1.7116929665207852 2.333752326667307 2.9279692955315104 2.6676513254642487 1.2496239691972735 1.5653293244540689 3.1663542129099369 1.8350419662892816 3.5141959227621555 3.2072105072438717 1.5184328518807886 1.5510296523571017 1.1345395669341085 1.1248729377984998
leaf_count=36 18 15 16 25 16 24 14 37 22 37 24 19 29 18 17
internal_value=-0.00437849 0.00815989 -0.00649703 -0.0274954 0.0229575 -0.0437116 0.0466586 0.0408057 -0.0433864 -0.0540696 -0.0582352 0.0564116 0.0545944 -0.0542412 0.0536589
internal_weight=35.8056 27.0961 19.6247 11.457 8.16776 8.52898 7.47136 5.50011 8.70953 5.34924 5.59137 5.90603 4.19434 2.38416 2.6759
internal_count=367 272 178 109 69 84 94 53 95 59 66 80 65 42 46
is_linear=0
shrinkage=0.05


Tree=47
num_leaves=18
num_cat=0
split_feature=8 18 11 3 10 10 3 14 16 1 5 12 10 9 5 9 5
split_gain=6.63568 6.28097 5.37846 4.07755 4.06255 1.57137 1.20229 1.17531 0.611988 0.404959 0.644406 0.336203 0.0160803 0.0147716 0.012138 0.0096338 0.003019
threshold=20.991084171664721 0.10014007590638964 0.059004101331247651 487.5426132363379 0.094116000614129017 0.066440927367023353 418.72023809523813 0.7686553482252817 0.81110979011026352 0.47478862754501738 0.20023753731667915 0.10021537259485404 0.019432270487360185 15.983141648910662 0.052049387252780362 15.983141648910662 0.17663341963945303
decision_type=2 2 2 2 2 2 2 2 2 2 2 2 2 2 2 2 2
left_child=1 2 4 5 11 8 -3 -4 -2 12 -11 13 -8 14 -1 -10 -14
right_child=3 6 7 -5 -6 -7 9 -9 15 10 -12 -13 16 -15 -16 -17 -18
leaf_value=-0.053045308639931989 -0.090616172656089983 0.0063359742564934379 0.0065503883472701396 0.018050248341608326 0.026429573574060828 -0.021146607692880254 0.060829844629182367 0.058246349530472585 -0.054279711459817637 0.015664779126102583 0.056510521080718891 -0.030714479326872043 0.056525388114204371 -0.060571507718776486 -0.059524811290944425 -0.059591738826165953 0.053166294390578253
leaf_weight=1.9540043286979218 2.108830124139784 2.2670087814331046 2.1451683640480033 2.5240928418934336 2.1311392523348331 2.4218327924609184 1.9289586879312972 2.2554126940667629 2.0246561691164975 1.9982672445476057 1.8685638010501859 1.4409823119640348 1.3339964933693411 2.563983928412199 1.1470653824508188 1.4755821861326692 1.3416142687201498
leaf_count=38 12 24 15 18 16 19 16 27 33 20 23 15 17 20 14 15 25
internal_value=-0.00426533 0.0100748 -0.0124468 -0.037383 -0.0341195 -0.0548055 0.0386772 0.0330459 -0.0693385 0.0473319 0.0354026 -0.0522785 0.0573499 -0.0577636 -0.055442 -0.0565191 0.0548411
internal_weight=34.9312 24.3762 13.6378 10.555 9.23718 8.0309 10.7384 4.40058 5.60907 8.4714 3.86683 7.10604 4.60457 5.66505 3.10107 3.50024 2.67561
internal_count=367 270 145 97 103 79 125 42 60 101 43 87 58 72 52 48 42
is_linear=0
shrinkage=0.05


Tree=48
num_leaves=18
num_cat=0
split_feature=8 18 11 10 3 10 14 3 16 1 15 12 10 9 15 9 15
split_gain=6.13616 5.83977 5.00013 3.82183 3.81716 1.54493 1.28577 1.26179 0.528948 0.411194 0.638323 0.347564 0.0153069 0.0123863 0.010473 0.00823095 0.00235265
threshold=20.991084171664721 0.10014007590638964 0.059004101331247651 0.094116000614129017 487.5426132363379 0.066440927367023353 0.7620063794093167 413.79444444444454 0.81110979011026352 0.47478862754501738 0.20023753731667915 0.10021537259485404 0.018900650562136339 15.983141648910662 0.052049387252780362 15.983141648910662 0.17663341963945303
decision_type=2 2 2 2 2 2 2 2 2 2 2 2 2 2 2 2 2
left_child=1 2 3 11 5 8 -4 -3 -2 12 -11 13 -9 14 -1 -10 -14
right_child=4 7 6 -5 -6 -7 -8 9 15 10 -12 -13 16 -15 -16 -17 -18
leaf_value=-0.05288946911823085 -0.088403979740294292 0.0037824094965703777 0.0027999822376327012 0.025267795273208878 0.017179300473657743 -0.020248299586635987 0.057598021913817479 0.06044617772628335 -0.054059401323511849 0.014983797929161508 0.056172713019749632 -0.029579672364013654 0.055943114849819724 -0.059970545122348652 -0.059041895237330944 -0.059077276586366294 0.052998250291034034
leaf_weight=1.864044763147833 2.0548911467194539 2.16086371988058 1.9996438100934018 2.1180134154856205 2.5195739902555943 2.4032972455024719 2.3037268742918968 1.7986656203865985 1.9335628263652327 1.9849776066839697 1.7878513187170026 1.4219472184777258 1.3824391700327399 2.4627565816044807 1.099820841103792 1.4155303463339803 1.3313825912773607
leaf_count=38 12 22 13 16 18 19 29 15 33 20 23 15 19 20 14 15 26
internal_value=-0.00416229 0.0098454 -0.0121682 -0.0334308 -0.0363316 -0.0536008 0.0321351 0.0378096 -0.0684335 0.0466841 0.0345022 -0.0515841 0.0568692 -0.05735 -0.0551725 -0.0561803 0.0544984
internal_weight=34.043 23.7161 13.27 8.96658 10.3269 7.80728 4.30337 10.4462 5.40398 8.28532 3.77283 6.84857 4.51249 5.42662 2.96387 3.34909 2.71382
internal_count=367 270 145 103 97 79 42 125 60 103 43 87 60 72 52 48 45
is_linear=0
shrinkage=0.05


Tree=49
num_leaves=15
num_cat=0
split_feature=7 5 5 11 14 0 18 14 16 18 5 1 18 5
split_gain=5.85867 6.14279 3.75589 3.65357 1.73361 1.22733 0.963912 0.123947 0.010596 0.00995335 0.00341542 0.00218959 0.00147659 0.00112948
threshold=20.500000000000004 0.10030484484736502 0.19049306548415088 0.023837825729152957 0.78921125287118798 4.8549270808425931 0.13749999999999996 0.73033997705354081 0.84324688404797143 0.073443575679455239 0.089600934348650615 0.80159222473335234 0.17513583158724652 0.047921956283149804
decision_type=2 2 2 2 2 2 2 2 2 2 2 2 2 2
left_child=1 3 5 4 9 7 -3 10 11 13 -2 12 -8 -1
right_child=2 6 -4 -5 -6 -7 8 -9 -10 -11 -12 -13 -14 -15
leaf_value=-0.052645111214752051 -0.055133310239309841 0.022577647199233507 0.0079780976047659508 0.031039231326188868 -0.0093252479734579237 -0.015638855020675333 0.054845696789329768 -0.071302364958137854 0.0598088028621023 -0.05952895411022871 -0.057963752300534403 0.056453797368038752 0.052557029725309456 -0.054799122129606671
leaf_weight=1.0309096872806573 2.5514142177999002 3.547514293342827 4.1015451028943053 3.4756162427365771 4.4816673994064331 1.9407686553895471 1.8271941766142847 2.0136457793414593 1.3367102816700933 1.151517406105995 1.8304192163050172 1.2543636448681352 1.147244371473789 1.485579941421747
leaf_count=22 39 34 26 33 36 20 28 13 15 14 21 15 25 26
internal_value=-0.00406164 0.0122104 -0.031193 -0.0118829 -0.030188 -0.0504657 0.0429456 -0.0610343 0.0559284 -0.0556786 -0.0563157 0.0547018 0.053963 -0.0539167
internal_weight=33.1761 20.7383 12.4378 11.6253 8.14967 8.33625 9.11303 6.39548 5.56551 3.66801 4.38183 4.2288 2.97444 2.51649
internal_count=367 248 119 131 98 93 117 73 83 62 60 68 53 48
is_linear=0
shrinkage=0.05


Tree=50
num_leaves=16
num_cat=0
split_feature=10 14 16 7 11 18 1 0 11 16 7 3 14 1 3
split_gain=7.08503 3.55658 3.47285 1.88352 1.81874 3.80406 0.782272 0.214292 0.0275607 0.0165198 0.0134798 0.00989199 0.00904947 0.000964868 0.000201714
threshold=1.0000000180025095e-35 0.71580145865294187 0.85532842655214136 19.500000000000004 0.033381086576174314 0.06249999999999991 0.5555468965722844 4.948095022151878 0.054847611704515381 0.85727359468427344 20.500000000000004 429.72500000000008 0.75591328617327214 0.9933851389512699 433.4224488870704
decision_type=2 2 2 2 2 2 2 2 2 2 2 2 2 2 2
left_child=2 -2 -1 -4 5 -3 9 8 11 -7 12 13 -6 -5 -14
right_child=1 4 3 7 10 6 -8 -9 -10 -11 -12 -13 14 -15 -16
leaf_value=0.01011402936403008 -0.021137414427419125 -0.039387550741812764 3.5991284536928722e-05 -0.052731101340190281 0.057936559718654995 0.054027545946339156 0.021635633688583605 -0.038505079754861851 -0.062558519631293247 0.061481748732699848 0.060490943078989196 -0.058829437930019657 0.05338645254383953 -0.05474400823933287 0.052397464902647142
leaf_weight=4.8162394948303726 3.6608166471123722 2.0534378513693792 2.1263827420771104 1.5635399632155902 1.6167446263134473 1.5275488905608656 3.0555959083139896 1.9045384041965006 2.008807972073555 1.4476409777998922 1.7054262012243269 1.3270803838968275 1.2036010697484019 0.96139441803097714 0.901932943612337
leaf_count=36 32 20 19 36 17 28 26 27 16 13 15 19 22 15 21
internal_value=0.000764281 0.0225782 -0.0247052 -0.0416585 0.0344221 0.0193912 0.039405 -0.0530757 -0.0578105 0.0576545 0.0568097 -0.0553345 0.0551231 -0.0534975 0.0529628
internal_weight=31.8807 17.1727 14.708 9.89174 13.5119 8.08422 6.03079 7.76536 5.86082 2.97519 5.4277 3.85201 3.72228 2.52493 2.10553
internal_count=362 194 168 132 162 87 67 113 86 41 75 70 60 51 43
is_linear=0
shrinkage=0.05


Tree=51
num_leaves=17
num_cat=0
split_feature=10 14 16 7 11 18 1 11 14 16 7 14 6 18 11 5
split_gain=6.55901 3.32383 3.25979 1.8217 1.76565 3.52583 0.785932 0.231617 0.0262697 0.0141865 0.0115004 0.00771956 0.0075826 0.0010716 0.000112152 4.56022e-05
threshold=1.0000000180025095e-35 0.71580145865294187 0.85532842655214136 19.500000000000004 0.033381086576174314 0.06249999999999991 0.5555468965722844 0.076353541547667172 0.79881625745170626 0.85727359468427344 20.500000000000004 0.75591328617327214 0.41059352304697827 0.069526842442078282 0.093963358543291645 0.046536796536796508
decision_type=2 2 2 2 2 2 2 2 2 2 2 2 2 2 2 2
left_child=2 -2 -1 -4 5 -3 9 8 12 -7 11 -6 -5 15 -13 -14
right_child=1 4 3 7 10 6 -8 -9 -10 -11 -12 14 13 -15 -16 -17
leaf_value=0.0096162972423221721 -0.020133005666232204 -0.038423325970582428 3.4191619174793121e-05 -0.05760962091249891 0.057509024177871959 0.053826655188157359 0.020702302964797765 -0.033693521657761821 -0.06204093812510985 0.060885825015218345 0.059920676217616035 0.053180230712205859 -0.052117745212282997 -0.054240287967400415 0.052432904307123301 -0.052634700069579647
leaf_weight=4.8123506642878082 3.6515224352479008 2.00106582790613 2.1263928450643999 1.4285269584506748 1.549038387835026 1.4583354927599432 3.0342435650527477 1.353255048394203 1.6069083139300344 1.3901747353374956 1.6372987888753412 1.0172546543180945 0.88409874588251136 1.3806215804070232 0.99118737876415242 0.82438585162162781
leaf_count=36 32 20 19 24 17 28 26 10 12 13 15 20 23 25 23 19
internal_value=0.000745528 0.0220448 -0.0239718 -0.0408018 0.0338207 0.018908 0.0384097 -0.0524139 -0.0565503 0.0572718 0.0564529 0.0548569 -0.0545973 -0.0532043 0.0528114 -0.0523672
internal_weight=31.1467 16.7301 14.4165 9.60419 13.0786 7.88382 5.88275 7.4778 6.12454 2.84851 5.19478 3.55748 4.51763 3.08911 2.00844 1.70848
internal_count=362 194 168 132 162 87 67 113 103 41 75 60 91 67 43 42
is_linear=0
shrinkage=0.05


Tree=52
num_leaves=17
num_cat=0
split_feature=10 14 5 7 11 18 9 11 14 5 7 6 14 18 3 5
split_gain=6.07118 3.10669 3.06106 1.7634 1.71516 3.26675 0.882407 0.247572 0.0222362 0.0198242 0.00981663 0.00664584 0.00658788 0.000924209 0.000148781 3.9236e-05
threshold=1.0000000180025095e-35 0.71580145865294187 0.1469296282931746 19.500000000000004 0.033381086576174314 0.06249999999999991 15.983141648910662 0.076353541547667172 0.79881625745170626 0.17663341963945303 20.500000000000004 0.41059352304697827 0.75591328617327214 0.069526842442078282 433.4224488870704 0.046536796536796508
decision_type=2 2 2 2 2 2 2 2 2 2 2 2 2 2 2 2
left_child=2 -2 3 -1 5 -3 9 8 11 -7 12 -5 -6 15 -14 -13
right_child=1 4 -4 7 10 6 -8 -9 -10 -11 -12 13 14 -15 -16 -17
leaf_value=3.2481764270493737e-05 -0.019172878892417297 -0.037467321265325891 0.0091426196186386709 -0.05726205658317355 0.057106594313364768 0.061247199245528197 0.018406997338200448 -0.032385698741878653 -0.061371281135624137 0.052706783281757513 0.059384544131400145 -0.052010320828480665 0.053049227413358435 -0.054028126939989429 0.052158577424525378 -0.052501421980313594
leaf_weight=2.126402463763954 3.6428895853459862 1.9508101753890494 4.8086902424693099 1.3668964169919489 1.4836114943027499 1.60520251467824 2.956930436193943 1.3379078842699526 1.5447934344410894 1.178226053714752 1.5711509734392164 0.84267387539148353 1.0961521118879316 1.3183146677911279 0.81939929537475098 0.78612048923969269
leaf_count=19 32 20 36 24 17 16 25 10 12 26 15 23 22 25 21 19
internal_value=0.000726828 0.021517 -0.0232596 -0.039972 0.0332241 0.0184304 0.0374267 -0.0517921 -0.0562237 0.057632 0.0561161 -0.0543804 0.0546054 -0.0530439 0.0526682 -0.0522473
internal_weight=30.4362 16.3044 14.1318 9.32311 12.6615 7.69117 5.74036 7.19671 5.8588 2.78343 4.97031 4.31401 3.39916 2.94711 1.91555 1.62879
internal_count=362 194 168 132 162 87 67 113 103 42 75 91 60 67 43 42
is_linear=0
shrinkage=0.05


Tree=53
num_leaves=17
num_cat=0
split_feature=10 14 16 7 11 18 9 11 14 5 7 6 14 18 3 5
split_gain=5.61774 2.90403 2.87369 1.70643 1.667 3.0256 0.879641 0.263346 0.0188404 0.0171323 0.00838389 0.00581967 0.00562503 0.000797072 0.000127592 3.37601e-05
threshold=1.0000000180025095e-35 0.71580145865294187 0.85532842655214136 19.500000000000004 0.033381086576174314 0.06249999999999991 15.983141648910662 0.076353541547667172 0.79881625745170626 0.17663341963945303 20.500000000000004 0.41059352304697827 0.75591328617327214 0.069526842442078282 433.4224488870704 0.046536796536796508
decision_type=2 2 2 2 2 2 2 2 2 2 2 2 2 2 2 2
left_child=2 -2 -1 -4 5 -3 9 8 11 -7 12 -5 -6 15 -14 -13
right_child=1 4 3 7 10 6 -8 -9 -10 -11 -12 13 14 -15 -16 -17
leaf_value=0.0086918829623012488 -0.018255498005223091 -0.036519495385865554 3.0857162406501157e-05 -0.056929327645003608 0.05672757755555459 0.060688106231760297 0.017595116434075391 -0.031114623794271292 -0.060743957266212859 0.052569042785316294 0.058880159377644438 -0.051908545795769423 0.052893679324127744 -0.053826911210081319 0.052049020171249676 -0.052375123600143562
leaf_weight=4.8052438199520138 3.6348669081926337 1.9026091210544089 2.1264116019010526 1.3076395113021133 1.4204451218247416 1.5406263284385207 2.9391668438911438 1.3233155533671377 1.484243109822273 1.1236257068812845 1.5070029385387895 0.80310812965035461 1.0456809904426334 1.2585890330374239 0.78103592060506333 0.74953861348330975
leaf_count=36 32 20 19 24 17 16 25 10 12 26 15 23 22 25 21 19
internal_value=0.000708484 0.0209949 -0.0225598 -0.0391481 0.0326317 0.0179587 0.0364564 -0.0511761 -0.0559141 0.057264 0.055798 -0.0541736 0.0543676 -0.0528918 0.0525325 -0.0521338
internal_weight=29.7531 15.8951 13.8581 9.05285 12.2602 7.50603 5.60342 6.92643 5.60312 2.66425 4.75416 4.11888 3.24716 2.81124 1.82672 1.55265
internal_count=362 194 168 132 162 87 67 113 103 42 75 91 60 67 43 42
is_linear=0
shrinkage=0.05


Tree=54
num_leaves=16
num_cat=0
split_feature=5 14 11 10 8 18 1 18 10 14 10 14 6 4 18
split_gain=5.27724 5.34631 4.43282 4.62148 2.11194 1.29756 0.718747 0.376061 0.0739824 0.0548069 0.0298348 0.0127221 0.00752425 0.000977989 7.39879e-05
threshold=0.1469296282931746 0.7332112483001173 0.010198451687017725 0.075685207699878118 20.991084171664721 0.12446544560614047 0.35832080397808314 0.071428571428571466 0.12426643395439212 0.7097931744114413 1.0000000180025095e-35 0.78921125287118798 0.44482947607082873 0.0072274546019554494 0.17513583158724652
decision_type=2 2 2 2 2 2 2 2 2 2 2 2 2 2 2
left_child=1 8 3 7 5 -2 -4 11 9 12 -7 -3 -1 14 -12
right_child=4 2 6 -5 -6 10 -8 -9 -10 -11 13 -13 -14 -15 -16
leaf_value=-0.057826737930442941 0.0037667029481411583 -0.052110318070477446 0.058020994577362428 0.041557559331192519 0.00037729872377995267 0.060756205326473113 0.019342854027720666 -0.025935667176951269 -0.066257268486897156 -0.042929963914870369 0.052619249585795752 -0.058223975564341029 -0.053026716378230226 0.054027761251200561 0.051959953898270572
leaf_weight=2.0148201119154758 1.5171179212629775 1.3358176779001936 2.5492097120732069 2.0339784510433674 4.4255438297986984 2.1053962856531143 2.2712768744677305 1.4493261706084011 1.3138264343142507 1.0763386804610489 0.88365926593542121 2.3442544192075729 1.3726307507604358 1.5828624777495859 0.82081631943583488
leaf_count=28 11 36 33 18 30 17 23 15 10 20 20 21 30 27 23
internal_value=0.000690395 -0.0163206 0.00272674 -0.0222191 0.0273449 0.0446169 0.0397969 -0.0475087 -0.0558283 -0.0527587 0.0561091 -0.0560048 -0.0558817 0.0531328 0.0523018
internal_weight=29.0969 17.7615 11.9839 7.16338 11.3354 6.90985 4.82049 5.1294 5.77762 4.46379 5.39273 3.68007 3.38745 3.28734 1.70448
internal_count=362 234 146 90 128 98 56 72 88 78 87 57 58 70 43
is_linear=0
shrinkage=0.05


Tree=55
num_leaves=15
num_cat=0
split_feature=10 14 11 18 11 18 14 5 5 16 5 11 2 0
split_gain=5.64248 4.8401 2.82956 3.67255 2.82466 2.17958 1.85112 3.28973 0.269452 0.0911672 0.0378946 0.0201673 0.00023219 1.95717e-05
threshold=0.063087097093307662 0.77536801474153971 0.039306141385336023 0.073443575679455239 0.1252703843629541 0.14941767775966094 0.7620063794093167 0.1469296282931746 0.19920383998543154 0.91851631283474444 0.1469296282931746 0.050625631687506105 0.04954658699578602 4.9002724744601336
decision_type=2 2 2 2 2 2 2 2 2 2 2 2 2 2
left_child=1 4 3 -3 5 8 7 -2 10 -8 11 12 13 -1
right_child=6 2 -4 -5 -6 -7 9 -9 -10 -11 -12 -13 -14 -15
leaf_value=-0.0517213163024463 -0.016105429106322781 -0.057937566312847071 0.051761707312834242 0.029056993779681912 0.021206852549921117 -0.010897602503613416 0.054435817483731552 0.054091148289290326 -0.08273815190009727 0.071010162987742084 -0.064127174224976144 -0.059835553243295203 -0.052968436954501298 -0.05204304406428565
leaf_weight=0.94508370384574536 3.6270272284746152 2.144892252981661 3.1765408683568239 2.7928336896002293 1.8422061018645752 2.9860728979110718 1.9432721827179196 3.0917910039424896 1.3009847253561018 1.4478046819567678 1.4908659569919107 1.2890402004122732 0.66504580155014981 0.94574086740612984
leaf_count=30 36 20 35 25 18 32 33 39 7 15 11 12 16 26
internal_value=0.00106247 -0.0146007 0.0149496 -0.00873246 -0.0355146 -0.0463735 0.0313966 0.0161969 -0.0623351 0.0615122 -0.0573604 -0.0547365 -0.0521649 -0.0518822
internal_weight=29.6892 19.5793 8.11427 4.93773 11.465 9.62283 10.1099 6.71882 6.63676 3.39108 5.33578 3.84491 2.55587 1.89082
internal_count=355 232 80 45 152 134 123 75 102 48 95 84 72 56
is_linear=0
shrinkage=0.05


Tree=56
num_leaves=14
num_cat=0
split_feature=10 7 5 3 14 14 5 18 16 16 3 6 14
split_gain=5.22831 4.66066 4.09487 2.79212 2.23201 1.79481 3.0586 1.45424 0.728843 0.0793376 0.0612349 0.00930471 0.00851154
threshold=0.063087097093307662 20.500000000000004 0.10312608685050322 492.57055846169425 0.75201459693088479 0.7620063794093167 0.1469296282931746 0.13749999999999996 0.84324688404797143 0.91851631283474444 437.07057886636164 0.41059352304697827 0.75037609496656243
decision_type=2 2 2 2 2 2 2 2 2 2 2 2 2
left_child=1 2 4 8 11 6 -2 -4 -3 -7 -10 -1 -9
right_child=5 3 7 -5 -6 9 -8 12 10 -11 -12 -13 -14
leaf_value=-0.06032446695722328 -0.015343747245546938 -0.088883708391257477 0.0074999356733391771 0.0049585882414415108 0.0020942041761321042 0.054209131665353266 0.05291073518045683 0.05912827340858795 -0.043127868026760885 0.0699843161316894 -0.058288537529425949 -0.054541991726236277 0.053927351358995346
leaf_weight=1.4472699090838488 3.6169878393411619 2.198157586157321 2.8314660452306271 1.8245437964797018 3.5893583409488201 1.856032118201256 3.0049571264535189 1.7423005513846876 1.4579401444643738 1.3968697041273115 1.2262328974902628 1.3396434672176836 1.4342214949429033
leaf_count=21 36 15 22 15 35 33 39 18 32 15 12 32 30
internal_value=0.00103314 -0.0142445 0.00393589 -0.0478146 -0.0239726 0.0305695 0.0156293 0.0335551 -0.0675361 0.0609834 -0.0500538 -0.0575449 0.05678
internal_weight=28.966 19.0911 12.3843 6.70687 6.37627 9.87485 6.62194 6.00799 4.88233 3.2529 2.68417 2.78691 3.17652
internal_count=355 232 158 74 88 123 75 70 59 48 44 53 48
is_linear=0
shrinkage=0.05


